{"learner":{"attributes":{"best_iteration":"999","best_ntree_limit":"1000","scikit_learn":"{\"n_estimators\": 1000, \"objective\": \"reg:squarederror\", \"max_depth\": null, \"max_leaves\": null, \"max_bin\": null, \"grow_policy\": null, \"learning_rate\": null, \"verbosity\": null, \"booster\": null, \"tree_method\": null, \"gamma\": null, \"min_child_weight\": null, \"max_delta_step\": null, \"subsample\": null, \"sampling_method\": null, \"colsample_bytree\": null, \"colsample_bylevel\": null, \"colsample_bynode\": null, \"reg_alpha\": null, \"reg_lambda\": null, \"scale_pos_weight\": null, \"base_score\": null, \"missing\": NaN, \"num_parallel_tree\": null, \"random_state\": null, \"n_jobs\": null, \"monotone_constraints\": null, \"interaction_constraints\": null, \"importance_type\": null, \"gpu_id\": null, \"validate_parameters\": null, \"predictor\": null, \"enable_categorical\": false, \"feature_types\": null, \"max_cat_to_onehot\": null, \"max_cat_threshold\": null, \"eval_metric\": null, \"early_stopping_rounds\": null, \"callbacks\": null, \"_estimator_type\": \"regressor\"}"},"feature_names":[],"feature_types":[],"gradient_booster":{"model":{"gbtree_model_param":{"num_parallel_tree":"1","num_trees":"1000","size_leaf_vector":"0"},"tree_info":[0,0,0,0,0,0,0,0,0,0,0,0,0,0,0,0,0,0,0,0,0,0,0,0,0,0,0,0,0,0,0,0,0,0,0,0,0,0,0,0,0,0,0,0,0,0,0,0,0,0,0,0,0,0,0,0,0,0,0,0,0,0,0,0,0,0,0,0,0,0,0,0,0,0,0,0,0,0,0,0,0,0,0,0,0,0,0,0,0,0,0,0,0,0,0,0,0,0,0,0,0,0,0,0,0,0,0,0,0,0,0,0,0,0,0,0,0,0,0,0,0,0,0,0,0,0,0,0,0,0,0,0,0,0,0,0,0,0,0,0,0,0,0,0,0,0,0,0,0,0,0,0,0,0,0,0,0,0,0,0,0,0,0,0,0,0,0,0,0,0,0,0,0,0,0,0,0,0,0,0,0,0,0,0,0,0,0,0,0,0,0,0,0,0,0,0,0,0,0,0,0,0,0,0,0,0,0,0,0,0,0,0,0,0,0,0,0,0,0,0,0,0,0,0,0,0,0,0,0,0,0,0,0,0,0,0,0,0,0,0,0,0,0,0,0,0,0,0,0,0,0,0,0,0,0,0,0,0,0,0,0,0,0,0,0,0,0,0,0,0,0,0,0,0,0,0,0,0,0,0,0,0,0,0,0,0,0,0,0,0,0,0,0,0,0,0,0,0,0,0,0,0,0,0,0,0,0,0,0,0,0,0,0,0,0,0,0,0,0,0,0,0,0,0,0,0,0,0,0,0,0,0,0,0,0,0,0,0,0,0,0,0,0,0,0,0,0,0,0,0,0,0,0,0,0,0,0,0,0,0,0,0,0,0,0,0,0,0,0,0,0,0,0,0,0,0,0,0,0,0,0,0,0,0,0,0,0,0,0,0,0,0,0,0,0,0,0,0,0,0,0,0,0,0,0,0,0,0,0,0,0,0,0,0,0,0,0,0,0,0,0,0,0,0,0,0,0,0,0,0,0,0,0,0,0,0,0,0,0,0,0,0,0,0,0,0,0,0,0,0,0,0,0,0,0,0,0,0,0,0,0,0,0,0,0,0,0,0,0,0,0,0,0,0,0,0,0,0,0,0,0,0,0,0,0,0,0,0,0,0,0,0,0,0,0,0,0,0,0,0,0,0,0,0,0,0,0,0,0,0,0,0,0,0,0,0,0,0,0,0,0,0,0,0,0,0,0,0,0,0,0,0,0,0,0,0,0,0,0,0,0,0,0,0,0,0,0,0,0,0,0,0,0,0,0,0,0,0,0,0,0,0,0,0,0,0,0,0,0,0,0,0,0,0,0,0,0,0,0,0,0,0,0,0,0,0,0,0,0,0,0,0,0,0,0,0,0,0,0,0,0,0,0,0,0,0,0,0,0,0,0,0,0,0,0,0,0,0,0,0,0,0,0,0,0,0,0,0,0,0,0,0,0,0,0,0,0,0,0,0,0,0,0,0,0,0,0,0,0,0,0,0,0,0,0,0,0,0,0,0,0,0,0,0,0,0,0,0,0,0,0,0,0,0,0,0,0,0,0,0,0,0,0,0,0,0,0,0,0,0,0,0,0,0,0,0,0,0,0,0,0,0,0,0,0,0,0,0,0,0,0,0,0,0,0,0,0,0,0,0,0,0,0,0,0,0,0,0,0,0,0,0,0,0,0,0,0,0,0,0,0,0,0,0,0,0,0,0,0,0,0,0,0,0,0,0,0,0,0,0,0,0,0,0,0,0,0,0,0,0,0,0,0,0,0,0,0,0,0,0,0,0,0,0,0,0,0,0,0,0,0,0,0,0,0,0,0,0,0,0,0,0,0,0,0,0,0,0,0,0,0,0,0,0,0,0,0,0,0,0,0,0,0,0,0,0,0,0,0,0,0,0,0,0,0,0,0,0,0,0,0,0,0,0,0,0,0,0,0,0,0,0,0,0,0,0,0,0,0,0,0,0,0,0,0,0,0,0,0,0,0,0,0,0,0,0,0,0,0,0,0,0,0,0,0,0,0,0,0,0,0,0,0,0,0,0,0,0,0,0,0,0,0,0,0,0,0,0,0,0,0,0,0,0,0,0,0,0,0,0,0,0,0,0,0,0,0,0,0,0,0,0,0,0,0,0,0,0,0,0,0,0,0,0,0,0,0,0,0,0,0,0,0,0,0,0,0,0,0,0,0,0,0,0,0,0,0,0,0,0,0,0,0,0,0,0,0,0,0,0,0,0,0,0,0,0,0,0,0,0,0,0,0,0,0,0,0,0,0,0],"trees":[{"base_weights":[3.800643E4,2.5821906E4,4.71722E4,2.0242266E4,3.1728213E4,4.2530574E4,5.589137E4,3.9062594E4,4.5801754E4],"categories":[],"categories_nodes":[],"categories_segments":[],"categories_sizes":[],"default_left":[1,1,1,0,0,1,0,0,0],"id":0,"left_children":[1,3,5,-1,-1,7,-1,-1,-1],"loss_changes":[7.57298E10,9.17835E9,1.3487636E10,0E0,0E0,1.1604132E9,0E0,0E0,0E0],"parents":[2147483647,0,0,1,1,2,2,5,5],"right_children":[2,4,6,-1,-1,8,-1,-1,-1],"split_conditions":[3.6140457E4,2.522273E4,4.9328297E4,6.0726797E3,9.518464E3,4.2708594E4,1.6767412E4,1.1718778E4,1.3740526E4],"split_indices":[20,20,20,0,0,20,0,0,0],"split_type":[0,0,0,0,0,0,0,0,0],"sum_hessian":[6.88E2,2.97E2,3.91E2,1.55E2,1.42E2,2.59E2,1.32E2,1.32E2,1.27E2],"tree_param":{"num_deleted":"0","num_feature":"21","num_nodes":"9","size_leaf_vector":"0"}},{"base_weights":[2.6688416E4,1.8640959E4,3.3616723E4,1.4372453E4,2.3008236E4,3.0550404E4,4.0207605E4,1.2943571E4,1.6126742E4,2.034674E4,2.4487451E4,2.8206857E4,3.278079E4],"categories":[],"categories_nodes":[],"categories_segments":[],"categories_sizes":[],"default_left":[1,1,1,1,1,1,0,0,0,0,0,0,0],"id":1,"left_children":[1,3,5,7,9,11,-1,-1,-1,-1,-1,-1,-1],"loss_changes":[3.7788713E10,5.653332E9,6.229033E9,2.0486349E8,1.1984896E8,4.1346662E8,0E0,0E0,0E0,0E0,0E0,0E0,0E0],"parents":[2147483647,0,0,1,1,2,2,3,3,4,4,5,5],"right_children":[2,4,6,8,10,12,-1,-1,-1,-1,-1,-1,-1],"split_conditions":[3.7442914E4,2.8249059E4,5.2671934E4,2.0751969E4,3.2055105E4,4.3980836E4,1.2062282E4,3.8830715E3,4.838023E3,6.1040225E3,7.346236E3,8.462058E3,9.834237E3],"split_indices":[20,20,20,20,20,20,0,0,0,0,0,0,0],"split_type":[0,0,0,0,0,0,0,0,0,0,0,0,0],"sum_hessian":[6.88E2,3.2E2,3.68E2,1.64E2,1.56E2,2.55E2,1.13E2,9.5E1,6.9E1,6.1E1,9.5E1,1.31E2,1.24E2],"tree_param":{"num_deleted":"0","num_feature":"21","num_nodes":"13","size_leaf_vector":"0"}},{"base_weights":[1.875813E4,1.3825543E4,2.4435975E4,1.0220784E4,1.6823494E4,2.258864E4,2.925583E4,9.302685E3,1.2037728E4,1.4652751E4,1.7753242E4,2.1022855E4,2.4013688E4,2.1111281E4,5.25008E3],"categories":[],"categories_nodes":[],"categories_segments":[],"categories_sizes":[],"default_left":[1,1,1,1,1,1,0,0,0,0,0,1,0,0,0],"id":2,"left_children":[1,3,5,7,9,11,-1,-1,-1,-1,-1,13,-1,-1,-1],"loss_changes":[1.8958598E10,3.8374113E9,2.179498E9,1.73269E8,1.4553498E8,1.9521536E7,0E0,0E0,0E0,0E0,0E0,5.653299E7,0E0,0E0,0E0],"parents":[2147483647,0,0,1,1,2,2,3,3,4,4,5,5,11,11],"right_children":[2,4,6,8,10,12,-1,-1,-1,-1,-1,14,-1,-1,-1],"split_conditions":[3.9629258E4,2.8721514E4,5.4617605E4,2.1643652E4,3.243054E4,4.6244992E4,8.776749E3,2.7908054E3,3.6113184E3,4.3958257E3,5.3259727E3,5.646972E4,7.2041064E3,6.333385E3,1.575024E3],"split_indices":[20,20,20,20,20,20,0,0,0,0,0,10,0,0,0],"split_type":[0,0,0,0,0,0,0,0,0,0,0,0,0,0,0],"sum_hessian":[6.88E2,3.7E2,3.18E2,1.7E2,2E2,2.34E2,8.4E1,1.17E2,5.3E1,6.5E1,1.35E2,1.19E2,1.15E2,1.18E2,1E0],"tree_param":{"num_deleted":"0","num_feature":"21","num_nodes":"15","size_leaf_vector":"0"}},{"base_weights":[1.3188766E4,9.754525E3,1.723528E4,7.5662217E3,1.2238909E4,1.6109252E4,2.1570365E4,6.5743076E3,8.996712E3,1.5012143E4,1.7246496E4,4.667012E3,6.7764644E3],"categories":[],"categories_nodes":[],"categories_segments":[],"categories_sizes":[],"default_left":[1,1,1,1,0,1,0,1,0,0,0,0,0],"id":3,"left_children":[1,3,5,7,-1,9,-1,11,-1,-1,-1,-1,-1],"loss_changes":[9.406702E9,1.9461202E9,1.1901583E9,2.2747648E8,0E0,5.799936E7,0E0,1.5799808E7,0E0,0E0,0E0,0E0,0E0],"parents":[2147483647,0,0,1,1,2,2,3,3,5,5,7,7],"right_children":[2,4,6,8,-1,10,-1,12,-1,-1,-1,-1,-1],"split_conditions":[3.9750336E4,3.0021736E4,5.661729E4,2.2353326E4,3.6716729E3,4.693108E4,6.47111E3,1.761525E4,2.6990137E3,4.503643E3,5.173949E3,1.4001038E3,2.0329393E3],"split_indices":[20,20,20,20,0,20,0,8,0,0,0,0,0],"split_type":[0,0,0,0,0,0,0,0,0,0,0,0,0],"sum_hessian":[6.88E2,3.74E2,3.14E2,2.01E2,1.73E2,2.53E2,6.1E1,1.22E2,7.9E1,1.36E2,1.17E2,1.4E1,1.08E2],"tree_param":{"num_deleted":"0","num_feature":"21","num_nodes":"13","size_leaf_vector":"0"}},{"base_weights":[9.269803E3,5.9151226E3,1.1378297E4,4.7757646E3,7.219441E3,1.0326735E4,1.41287705E4,3.9169807E3,5.195565E3,9.240633E3,1.1105576E4,1.2906711E4,1.6518371E4,5.219681E3,1.4643135E3,2.343378E3,9.274617E3,1.114702E4,1.947207E3,3.093336E3,1.2991775E4,9.304017E3,2.682248E3],"categories":[],"categories_nodes":[],"categories_segments":[],"categories_sizes":[],"default_left":[1,1,1,1,0,1,1,0,1,1,1,1,0,0,0,0,1,0,0,0,0,0,0],"id":4,"left_children":[1,3,5,7,-1,9,11,-1,13,15,17,19,-1,-1,-1,-1,21,-1,-1,-1,-1,-1,-1],"loss_changes":[4.8062095E9,3.6379136E8,1.074643E9,3.2284416E7,0E0,1.5876096E8,1.1970765E8,0E0,9.05472E5,9.909248E6,4.471603E7,2.659328E7,0E0,0E0,0E0,0E0,1.015808E6,0E0,0E0,0E0,0E0,0E0,0E0],"parents":[2147483647,0,0,1,1,2,2,3,3,5,5,6,6,8,8,9,9,10,10,11,11,16,16],"right_children":[2,4,6,8,-1,10,12,-1,14,16,18,20,-1,-1,-1,-1,22,-1,-1,-1,-1,-1,-1],"split_conditions":[3.4427848E4,2.3369688E4,5.2671934E4,1.9281988E4,2.1658323E3,4.1365188E4,5.9446094E4,1.1750942E3,3.065321E4,2.227959E4,6.3597977E4,3.779227E4,4.9555117E3,1.5659044E3,4.3929407E2,7.030134E2,5.617886E4,3.344106E3,5.841621E2,9.280008E2,3.8975327E3,2.791205E3,8.0467444E2],"split_indices":[20,20,20,20,0,20,20,0,3,0,1,6,0,0,0,0,6,0,0,0,0,0,0],"split_type":[0,0,0,0,0,0,0,0,0,0,0,0,0,0,0,0,0,0,0,0,0,0,0],"sum_hessian":[6.88E2,2.67E2,4.21E2,1.45E2,1.22E2,3.08E2,1.13E2,5.1E1,9.4E1,1.34E2,1.74E2,7.9E1,3.4E1,9.3E1,1E0,1E0,1.33E2,1.73E2,1E0,1E0,7.8E1,1.32E2,1E0],"tree_param":{"num_deleted":"0","num_feature":"21","num_nodes":"23","size_leaf_vector":"0"}},{"base_weights":[6.522758E3,4.0925896E3,7.976993E3,3.4411838E3,5.100427E3,7.0284243E3,9.614593E3,2.631571E3,3.687076E3,5.129034E3,1.1341387E3,6.426947E3,7.5125312E3,8.880319E3,1.1570883E4,9.3085614E2,2.694919E3,3.7235674E3,-3.459463E2,6.461405E3,9.9092773E2,3.2281897E3,3.9489219E3,2.6660618E3,6.5001816E3],"categories":[],"categories_nodes":[],"categories_segments":[],"categories_sizes":[],"default_left":[1,1,1,1,1,1,1,1,1,0,0,1,0,0,0,0,0,1,0,1,0,0,0,0,0],"id":5,"left_children":[1,3,5,7,9,11,13,15,17,-1,-1,19,-1,-1,-1,-1,-1,21,-1,23,-1,-1,-1,-1,-1],"loss_changes":[2.402306E9,1.5314074E8,6.003753E8,2.2348672E7,5.5296E6,3.2082944E7,1.1989709E8,1.90864E6,1.9095936E7,0E0,0E0,1.794816E7,0E0,0E0,0E0,0E0,0E0,6.48448E5,0E0,1.654784E6,0E0,0E0,0E0,0E0,0E0],"parents":[2147483647,0,0,1,1,2,2,3,3,4,4,5,5,6,6,7,7,8,8,11,11,17,17,19,19],"right_children":[2,4,6,8,10,12,14,16,18,-1,-1,20,-1,-1,-1,-1,-1,22,-1,24,-1,-1,-1,-1,-1],"split_conditions":[3.38804E4,2.706137E4,4.770089E4,1.8985287E4,3.3859125E4,4.0751246E4,5.894281E4,1.671854E4,2.8203312E4,1.5387103E3,3.402416E2,4.067255E4,2.2537595E3,2.664096E3,3.471265E3,2.7925687E2,8.084757E2,1.9943953E4,-1.0378389E2,2.262854E4,2.9727832E2,9.68457E2,1.1846766E3,7.9981854E2,1.9500546E3],"split_indices":[20,20,20,20,20,20,20,20,19,0,0,20,0,0,0,0,0,20,0,1,0,0,0,0,0],"split_type":[0,0,0,0,0,0,0,0,0,0,0,0,0,0,0,0,0,0,0,0,0,0,0,0,0],"sum_hessian":[6.88E2,2.59E2,4.29E2,1.6E2,9.9E1,2.75E2,1.54E2,4E1,1.2E2,9.8E1,1E0,1.29E2,1.46E2,1.16E2,3.8E1,2E0,3.8E1,1.19E2,1E0,1.28E2,1E0,4.2E1,7.7E1,2E0,1.26E2],"tree_param":{"num_deleted":"0","num_feature":"21","num_nodes":"25","size_leaf_vector":"0"}},{"base_weights":[4.589809E3,3.266031E3,5.9156436E3,2.5698477E3,4.2068735E3,5.5268535E3,7.894043E3,2.105431E3,2.8696538E3,4.2501196E3,2.137313E3,4.9361187E3,6.016489E3,7.0719E3,9.40464E3,1.1072489E3,2.1688315E3,2.8987104E3,-2.940547E2,3.9822073E3,4.928356E3,4.9810635E3,-5.8818555E2,6.0767637E3,3.0049336E3,1.2550728E3,1.1015283E2,4.0239365E3,1.1942787E3,4.9973076E3,1.3940332E3,6.098662E3,1.4069668E3,3.594629E3,3.2307617E2,4.742616E3,3.7400664E3,6.1200713E3,1.465041E3],"categories":[],"categories_nodes":[],"categories_segments":[],"categories_sizes":[],"default_left":[1,1,1,1,1,1,1,1,1,1,0,1,1,0,0,1,0,0,0,1,0,1,0,1,1,0,0,1,0,0,0,1,0,0,0,0,0,0,0],"id":6,"left_children":[1,3,5,7,9,11,13,15,17,19,-1,21,23,-1,-1,25,-1,-1,-1,27,-1,29,-1,31,33,-1,-1,35,-1,-1,-1,37,-1,-1,-1,-1,-1,-1,-1],"loss_changes":[1.1899505E9,2.1647386E8,2.2020096E8,2.2083712E7,3.983104E6,5.418291E7,5.5552E5,2.851232E6,1.1883648E7,6.177024E6,0E0,3.694541E7,9.694208E6,0E0,0E0,8.93512E5,0E0,0E0,0E0,7.642496E6,0E0,9.57952E5,0E0,6.7584E6,6.746056E6,0E0,0E0,3.683456E6,0E0,0E0,0E0,5.814784E6,0E0,0E0,0E0,0E0,0E0,0E0,0E0],"parents":[2147483647,0,0,1,1,2,2,3,3,4,4,5,5,6,6,7,7,8,8,9,9,11,11,12,12,15,15,19,19,21,21,23,23,24,24,27,27,31,31],"right_children":[2,4,6,8,10,12,14,16,18,20,-1,22,24,-1,-1,26,-1,-1,-1,28,-1,30,-1,32,34,-1,-1,36,-1,-1,-1,38,-1,-1,-1,-1,-1,-1,-1],"split_conditions":[3.8342906E4,3.0021736E4,5.7210113E4,1.9943953E4,5.6311953E4,4.576749E4,6.1051312E4,1.51759E4,2.9982535E4,4.1057773E4,6.411939E2,5.646972E4,6.3446105E4,2.12157E3,2.821392E3,1.5046185E4,6.506495E2,8.6961316E2,-8.821641E1,4.0816688E4,1.4785068E3,4.572639E4,-1.7645567E2,6.029194E4,6.3495938E4,3.7652185E2,3.3045853E1,3.1705879E4,3.5828363E2,1.4991924E3,4.1821E2,6.5014938E4,4.2209006E2,1.0783887E3,9.692286E1,1.4227849E3,1.12202E3,1.8360215E3,4.3951233E2],"split_indices":[20,17,18,20,1,20,20,2,17,2,0,10,2,0,0,1,0,0,0,2,0,20,0,16,1,0,0,9,0,0,0,4,0,0,0,0,0,0,0],"split_type":[0,0,0,0,0,0,0,0,0,0,0,0,0,0,0,0,0,0,0,0,0,0,0,0,0,0,0,0,0,0,0,0,0,0,0,0,0,0,0],"sum_hessian":[6.88E2,3.46E2,3.42E2,2.01E2,1.45E2,2.89E2,5.3E1,8.2E1,1.19E2,1.41E2,4E0,1.36E2,1.53E2,3.8E1,1.5E1,6E0,7.6E1,1.18E2,1E0,1.06E2,3.5E1,1.35E2,1E0,1.49E2,4E0,5E0,1E0,1.04E2,2E0,1.34E2,1E0,1.48E2,1E0,3E0,1E0,2.5E1,7.9E1,1.47E2,1E0],"tree_param":{"num_deleted":"0","num_feature":"21","num_nodes":"39","size_leaf_vector":"0"}},{"base_weights":[3.2381514E3,2.1183074E3,4.037146E3,1.6259543E3,2.589407E3,3.5997642E3,5.093593E3,1.2645173E3,1.7435966E3,2.2140293E3,2.8553843E3,3.3474873E3,4.0179338E3,4.720881E3,6.537118E3,2.741958E2,1.2833628E3,1.7785992E3,4.063794E2,2.3008823E3,7.116164E2,8.52624E2,2.9206458E3,3.3711145E3,-4.99958E2,4.0498884E3,3.792754E2,4.7902188E3,-8.984336E2,6.6794683E3,1.8450566E3,1.3004014E3,3.2646777E2,1.7917714E3,2.1752148E2,1.355957E1,5.327995E2,2.3700044E3,7.233906E2,2.2905762E2,9.8412695E2,2.9526409E3,2.1251855E2,1.1185449E3,3.3897222E3,4.117863E3,1.9076188E3,7.465215E2,4.8256724E3,5.499297E2,2.3922878E3,2.9994846E3,7.817161E2,4.8488325E3,3.3124297E3,4.250727E3,3.017052E3,4.911179E3,2.3385164E3],"categories":[],"categories_nodes":[],"categories_segments":[],"categories_sizes":[],"default_left":[1,1,1,1,1,1,1,1,1,1,1,1,1,1,1,0,1,1,1,1,0,1,1,1,0,1,0,1,0,0,0,0,0,0,0,0,0,1,0,0,0,1,0,0,1,1,0,0,1,0,0,0,0,0,0,0,0,0,0],"id":7,"left_children":[1,3,5,7,9,11,13,15,17,19,21,23,25,27,29,-1,31,33,35,37,-1,39,41,43,-1,45,-1,47,-1,-1,-1,-1,-1,-1,-1,-1,-1,49,-1,-1,-1,51,-1,-1,53,55,-1,-1,57,-1,-1,-1,-1,-1,-1,-1,-1,-1,-1],"loss_changes":[6.0792986E8,6.282253E7,1.669545E8,3.918112E6,8.25504E6,1.682688E7,3.1011328E7,3.75964E5,4.238656E6,6.84448E6,8.227392E6,1.8502784E7,1.0439936E7,4.131853E7,1.702208E6,0E0,1.95016E5,1.728224E6,1.9141669E5,4.936992E6,0E0,1.025815E5,6.217536E6,3.920768E6,0E0,6.997888E6,0E0,9.873664E6,0E0,0E0,0E0,0E0,0E0,0E0,0E0,0E0,0E0,1.036704E6,0E0,0E0,0E0,5.587392E6,0E0,0E0,4.464384E6,1.508736E6,0E0,0E0,8.293376E6,0E0,0E0,0E0,0E0,0E0,0E0,0E0,0E0,0E0,0E0],"parents":[2147483647,0,0,1,1,2,2,3,3,4,4,5,5,6,6,7,7,8,8,9,9,10,10,11,11,12,12,13,13,14,14,16,16,17,17,18,18,19,19,21,21,22,22,23,23,25,25,27,27,37,37,41,41,44,44,45,45,48,48],"right_children":[2,4,6,8,10,12,14,16,18,20,22,24,26,28,30,-1,32,34,36,38,-1,40,42,44,-1,46,-1,48,-1,-1,-1,-1,-1,-1,-1,-1,-1,50,-1,-1,-1,52,-1,-1,54,56,-1,-1,58,-1,-1,-1,-1,-1,-1,-1,-1,-1,-1],"split_conditions":[3.574858E4,2.3210477E4,5.250546E4,1.8949047E4,3.1065469E4,4.55622E4,6.0517203E4,1.643873E4,2.3657004E4,3.0235969E4,2.8763172E4,5.682157E4,5.4434734E4,6.0345656E4,6.1308363E4,8.225874E1,3.0393871E4,3.065321E4,2.6133883E4,3.9333812E4,2.1348492E2,2.108021E4,3.567564E4,2.2790121E4,-1.4998741E2,5.626964E4,1.1378262E2,3.44666E4,-2.695301E2,2.0038406E3,5.53517E2,3.9012042E2,9.794034E1,5.3753143E2,6.525645E1,4.067871E0,1.5983986E2,1.777754E4,2.170172E2,6.8717285E1,2.952381E2,3.734379E4,6.375557E1,3.3556348E2,2.9873686E4,4.9527418E4,5.7228564E2,2.2395645E2,6.3446105E4,1.6497891E2,7.176864E2,8.998454E2,2.3451485E2,1.4546498E3,9.9372894E2,1.2752181E3,9.0511566E2,1.4733538E3,7.0155493E2],"split_indices":[17,20,18,20,20,20,20,20,18,20,15,3,19,20,12,0,2,3,0,0,0,0,17,1,0,14,0,0,0,0,0,0,0,0,0,0,0,3,0,0,0,16,0,0,3,18,0,0,2,0,0,0,0,0,0,0,0,0,0],"split_type":[0,0,0,0,0,0,0,0,0,0,0,0,0,0,0,0,0,0,0,0,0,0,0,0,0,0,0,0,0,0,0,0,0,0,0,0,0,0,0,0,0,0,0,0,0,0,0,0,0,0,0,0,0,0,0,0,0,0,0],"sum_hessian":[6.88E2,2.88E2,4E2,1.43E2,1.45E2,2.86E2,1.14E2,3.8E1,1.05E2,6.4E1,8.1E1,1.84E2,1.02E2,9.4E1,2E1,1E0,3.7E1,1.02E2,3E0,6E1,4E0,3E0,7.8E1,1.83E2,1E0,1.01E2,1E0,9.3E1,1E0,1.9E1,1E0,3.6E1,1E0,1.01E2,1E0,1E0,2E0,5.7E1,3E0,1E0,2E0,7.7E1,1E0,2E0,1.81E2,9.7E1,4E0,1E0,9.2E1,1E0,5.6E1,7.5E1,2E0,6E0,1.75E2,8.4E1,1.3E1,8.8E1,4E0],"tree_param":{"num_deleted":"0","num_feature":"21","num_nodes":"59","size_leaf_vector":"0"}},{"base_weights":[2.2876042E3,1.4492356E3,2.8409912E3,1.2001749E3,1.8688933E3,2.6572644E3,4.2190864E3,1.2231589E3,-9.3927246E1,2.2548396E3,1.3384972E3,2.4988E3,3.3709258E3,4.2886924E3,5.0860742E2,1.0668947E3,1.4544594E3,-6.0878906E2,2.8062305E2,1.8083676E3,2.753989E3,1.413634E3,-1.846302E2,2.5539653E3,1.1697249E3,3.5839133E3,1.8624016E3,4.5317217E3,2.5678364E3,6.845211E2,1.1217977E3,1.8347965E3,1.2772988E3,1.9469922E2,1.8527103E3,3.1067134E3,1.4031674E3,1.0576031E3,2.2452468E3,2.4395862E3,3.2995618E3,1.4259662E3,-2.4514844E2,3.2238477E2,3.6383418E3,-7.6366797E2,2.239039E3,7.684551E2,4.6105327E3,7.9746826E2,2.7654376E2,1.1364512E3,3.0826108E2,3.012578E2,1.9032565E3,8.499805E1,1.3003677E3,2.589215E3,1.6204237E3,3.266428E3,1.1660924E3,-3.7188672E2,1.1652987E3,2.5432012E3,5.0364975E2,2.503574E3,1.506287E3,3.548979E3,1.759265E3,-4.2496387E2,1.6328656E3,-2.9156055E2,-7.616211E1,2.4501467E3,3.7917205E3,2.899901E3,1.1303695E3,4.665166E3,1.2945508E3],"categories":[],"categories_nodes":[],"categories_segments":[],"categories_sizes":[],"default_left":[1,1,1,1,1,1,1,1,1,1,1,1,1,1,0,1,1,0,0,1,1,1,0,1,1,1,1,1,0,1,1,1,1,0,1,1,0,1,1,1,1,1,1,0,1,0,1,0,1,0,0,0,0,0,0,0,0,0,0,0,0,0,0,0,0,0,0,0,0,0,0,0,0,0,0,0,0,0,0],"id":8,"left_children":[1,3,5,7,9,11,13,15,17,19,21,23,25,27,-1,29,31,-1,-1,33,35,37,-1,39,41,43,45,47,-1,49,51,53,55,-1,57,59,-1,61,63,65,67,69,71,-1,73,-1,75,-1,77,-1,-1,-1,-1,-1,-1,-1,-1,-1,-1,-1,-1,-1,-1,-1,-1,-1,-1,-1,-1,-1,-1,-1,-1,-1,-1,-1,-1,-1,-1],"loss_changes":[3.1553894E8,2.6604544E7,9.361075E7,5.349776E6,1.7657088E7,3.3193728E7,9.957504E6,4.701152E6,9.422068E5,7.722592E6,5.410936E6,1.9374848E7,1.388832E7,7.601344E6,0E0,1.478408E6,2.170928E6,0E0,0E0,2.000576E6,7.552448E6,1.0356848E7,0E0,1.685248E7,5.42526E6,8.590656E6,1.1600644E7,8.023872E6,0E0,5.16743E5,7.46424E5,1.421364E6,1.237216E6,0E0,1.278944E6,2.08E6,0E0,5.359748E6,4.946112E6,1.1576832E7,7.586752E6,5.289384E6,1.3231719E3,0E0,5.50912E5,0E0,3.316136E6,0E0,8.44928E5,0E0,0E0,0E0,0E0,0E0,0E0,0E0,0E0,0E0,0E0,0E0,0E0,0E0,0E0,0E0,0E0,0E0,0E0,0E0,0E0,0E0,0E0,0E0,0E0,0E0,0E0,0E0,0E0,0E0,0E0],"parents":[2147483647,0,0,1,1,2,2,3,3,4,4,5,5,6,6,7,7,8,8,9,9,10,10,11,11,12,12,13,13,15,15,16,16,19,19,20,20,21,21,23,23,24,24,25,25,26,26,27,27,29,29,30,30,31,31,32,32,34,34,35,35,37,37,38,38,39,39,40,40,41,41,42,42,44,44,46,46,48,48],"right_children":[2,4,6,8,10,12,14,16,18,20,22,24,26,28,-1,30,32,-1,-1,34,36,38,-1,40,42,44,46,48,-1,50,52,54,56,-1,58,60,-1,62,64,66,68,70,72,-1,74,-1,76,-1,78,-1,-1,-1,-1,-1,-1,-1,-1,-1,-1,-1,-1,-1,-1,-1,-1,-1,-1,-1,-1,-1,-1,-1,-1,-1,-1,-1,-1,-1,-1],"split_conditions":[3.489213E4,2.905929E4,5.7923285E4,2.9732246E4,3.2384723E4,5.3715305E4,6.5281273E4,2.104354E4,2.9030887E4,3.317144E4,3.8921656E4,5.6571977E4,5.7488984E4,6.2771016E4,1.5258223E2,1.7737209E4,1.9324883E4,-1.8263672E2,8.418692E1,2.2481008E4,3.20763E4,3.6346203E4,-5.5389065E1,4.9585945E4,5.7923285E4,3.779227E4,5.796986E4,5.313879E4,7.7035095E2,1.8425547E4,2.9919297E4,1.777754E4,1.96088E4,5.8409767E1,2.75267E4,3.8921656E4,4.2095023E2,2.8848604E4,3.8040938E4,4.813289E4,5.496525E4,5.304319E4,6.1086508E4,9.671543E1,5.4248242E4,-2.291004E2,5.3619062E4,2.3053653E2,6.5281273E4,2.392405E2,8.2963135E1,3.4093536E2,9.2478325E1,9.037735E1,5.70977E2,2.5499414E1,3.9011032E2,7.767646E2,4.8612714E2,9.799284E2,3.4982773E2,-1.1156602E2,3.4958963E2,7.629604E2,1.5109492E2,7.510722E2,4.518861E2,1.0646937E3,5.2777954E2,-1.2748917E2,4.898597E2,-8.746817E1,-2.2848633E1,7.3504407E2,1.1375162E3,8.699703E2,3.3911087E2,1.3995498E3,3.8836526E2],"split_indices":[12,20,7,16,13,20,4,20,1,20,15,3,3,12,0,9,5,0,0,7,10,15,0,4,8,6,3,10,0,20,11,4,6,0,2,20,0,0,15,5,12,1,0,0,19,0,15,0,3,0,0,0,0,0,0,0,0,0,0,0,0,0,0,0,0,0,0,0,0,0,0,0,0,0,0,0,0,0,0],"split_type":[0,0,0,0,0,0,0,0,0,0,0,0,0,0,0,0,0,0,0,0,0,0,0,0,0,0,0,0,0,0,0,0,0,0,0,0,0,0,0,0,0,0,0,0,0,0,0,0,0,0,0,0,0,0,0,0,0,0,0,0,0,0,0,0,0,0,0,0,0,0,0,0,0,0,0,0,0,0,0],"sum_hessian":[6.88E2,2.75E2,4.13E2,1.75E2,1E2,3.67E2,4.6E1,1.72E2,3E0,5.6E1,4.4E1,3.04E2,6.3E1,4.5E1,1E0,1.06E2,6.6E1,1E0,2E0,3.2E1,2.4E1,4.2E1,2E0,2.91E2,1.3E1,5.4E1,9E0,3.8E1,7E0,1.5E1,9.1E1,1.8E1,4.8E1,1E0,3.1E1,1.8E1,6E0,3.1E1,1.1E1,2.56E2,3.5E1,1.1E1,2E0,1E0,5.3E1,1E0,8E0,1E0,3.7E1,1.1E1,4E0,8.9E1,2E0,1E0,1.7E1,1E0,4.7E1,5E0,2.6E1,1.6E1,2E0,2E0,2.9E1,9E0,2E0,2.38E2,1.8E1,2.9E1,6E0,1E0,1E1,1E0,1E0,8E0,4.5E1,4E0,4E0,3.6E1,1E0],"tree_param":{"num_deleted":"0","num_feature":"21","num_nodes":"79","size_leaf_vector":"0"}},{"base_weights":[1.6228634E3,1.1643933E3,2.1928948E3,8.8658624E2,1.464681E3,2.1019072E3,3.817926E3,8.9614606E2,-5.174707E2,1.5061317E3,-9.13444E0,1.8290024E3,2.3217825E3,8.276094E2,3.972405E3,7.789779E2,1.0867052E3,1.7038818E3,1.3311201E3,1.781207E2,-4.7270508E2,1.9207506E3,9.669669E2,3.3336313E3,2.2080745E3,4.144356E3,8.6852344E2,6.534961E2,8.76803E2,1.208281E3,6.4134265E2,1.1881909E3,1.9036744E3,1.0207516E3,1.7280309E3,5.530957E1,3.3468262E2,-5.2718555E2,1.9455432E3,-5.564883E2,1.2441515E3,1.2402247E3,2.380372E3,2.1555254E3,4.525452E3,7.4526855E2,4.326878E2,1.1502147E3,7.243504E2,7.617685E2,1.3104229E3,8.2221027E2,2.396635E2,1.4400142E3,1.5074837E2,1.3614584E3,2.4356304E3,1.1547037E3,2.6231134E2,1.1889827E3,2.0140228E3,-2.9417969E1,9.335807E1,1.7707112E3,2.4821606E3,8.78125E1,-9.225449E2,1.666939E3,2.3430351E2,1.4945477E3,-1.0382188E3,8.2508826E2,2.4261013E3],"categories":[],"categories_nodes":[],"categories_segments":[],"categories_sizes":[],"default_left":[1,1,1,1,1,1,1,1,0,1,1,1,1,0,1,1,1,1,1,1,0,1,1,0,1,1,0,1,1,1,1,1,1,1,1,1,0,0,1,1,1,1,1,0,0,0,0,0,0,0,0,0,0,0,0,0,0,0,0,0,0,0,0,0,0,0,0,0,0,0,0,0,0],"id":9,"left_children":[1,3,5,7,9,11,13,15,-1,17,19,21,23,-1,25,27,29,31,33,35,-1,37,39,-1,41,43,-1,45,47,49,51,53,55,57,59,61,-1,-1,63,65,67,69,71,-1,-1,-1,-1,-1,-1,-1,-1,-1,-1,-1,-1,-1,-1,-1,-1,-1,-1,-1,-1,-1,-1,-1,-1,-1,-1,-1,-1,-1,-1],"loss_changes":[1.7751155E8,3.073552E7,3.7219456E7,3.175088E6,1.1193376E7,1.327488E7,3.64152E6,3.641296E6,0E0,3.892256E6,6.050345E5,8.81984E6,1.0817792E7,0E0,3.872544E6,9.98248E5,3.231824E6,5.980576E6,1.0431776E7,7.762658E4,0E0,8.36928E6,7.026528E6,0E0,2.1227712E7,9.8432E4,0E0,8.9338E5,2.042924E6,1.601392E6,1.1106605E6,6.314224E6,1.2836352E7,5.589596E6,4.080216E6,1.5641429E4,0E0,0E0,6.862944E6,7.885628E5,5.159794E6,1.545872E7,6.675136E6,0E0,0E0,0E0,0E0,0E0,0E0,0E0,0E0,0E0,0E0,0E0,0E0,0E0,0E0,0E0,0E0,0E0,0E0,0E0,0E0,0E0,0E0,0E0,0E0,0E0,0E0,0E0,0E0,0E0,0E0],"parents":[2147483647,0,0,1,1,2,2,3,3,4,4,5,5,6,6,7,7,9,9,10,10,11,11,12,12,14,14,15,15,16,16,17,17,18,18,19,19,21,21,22,22,24,24,25,25,27,27,28,28,29,29,30,30,31,31,32,32,33,33,34,34,35,35,38,38,39,39,40,40,41,41,42,42],"right_children":[2,4,6,8,10,12,14,16,-1,18,20,22,24,-1,26,28,30,32,34,36,-1,38,40,-1,42,44,-1,46,48,50,52,54,56,58,60,62,-1,-1,64,66,68,70,72,-1,-1,-1,-1,-1,-1,-1,-1,-1,-1,-1,-1,-1,-1,-1,-1,-1,-1,-1,-1,-1,-1,-1,-1,-1,-1,-1,-1,-1,-1],"split_conditions":[4.0622133E4,3.0021736E4,6.1308363E4,2.9982535E4,4.2287562E4,4.709057E4,4.710115E4,2.2607797E4,-1.5524121E2,3.5153234E4,4.687185E4,5.0206258E4,4.4483633E4,2.4828282E2,6.0805094E4,1.98693E4,3.4648445E4,3.110368E4,4.1317562E4,4.891193E4,-1.4181152E2,3.4873266E4,4.7029496E4,1.0000894E3,4.71359E4,5.987683E4,2.6055704E2,1.9045074E4,2.113596E4,2.2458152E4,2.9263535E4,3.2221555E4,3.479615E4,3.9754656E4,3.707615E4,3.7423617E4,1.0040479E2,-1.5815567E2,4.6724434E4,4.626504E4,4.80421E4,4.847509E4,4.6807156E4,6.4665765E2,1.3576357E3,2.2358058E2,1.2980635E2,3.4506442E2,2.1730513E2,2.2853056E2,3.9312686E2,2.4666309E2,7.1899055E1,4.3200427E2,4.522451E1,4.0843753E2,7.3068915E2,3.4641113E2,7.8693405E1,3.5669482E2,6.0420685E2,-8.825391E0,2.8007421E1,5.312134E2,7.446482E2,2.6343752E1,-2.767635E2,5.000817E2,7.029105E1,4.4836435E2,-3.1146564E2,2.4752649E2,7.2783044E2],"split_indices":[18,17,20,17,16,17,3,20,0,7,13,7,11,0,4,0,0,5,7,0,0,13,9,0,10,17,0,12,0,14,20,7,20,7,15,1,0,0,5,0,16,11,16,0,0,0,0,0,0,0,0,0,0,0,0,0,0,0,0,0,0,0,0,0,0,0,0,0,0,0,0,0,0],"split_type":[0,0,0,0,0,0,0,0,0,0,0,0,0,0,0,0,0,0,0,0,0,0,0,0,0,0,0,0,0,0,0,0,0,0,0,0,0,0,0,0,0,0,0,0,0,0,0,0,0,0,0,0,0,0,0,0,0,0,0,0,0,0,0,0,0,0,0,0,0,0,0,0,0],"sum_hessian":[6.88E2,3.83E2,3.05E2,2.01E2,1.82E2,2.91E2,1.4E1,2E2,1E0,1.77E2,5E0,1.34E2,1.57E2,1E0,1.3E1,1.27E2,7.3E1,7.9E1,9.8E1,4E0,1E0,1.2E2,1.4E1,1.3E1,1.44E2,1.2E1,1E0,5.9E1,6.8E1,5.6E1,1.7E1,2.4E1,5.5E1,5.7E1,4.1E1,3E0,1E0,1E0,1.19E2,2E0,1.2E1,2.3E1,1.21E2,3E0,9E0,4E1,1.9E1,2.2E1,4.6E1,1.2E1,4.4E1,1.1E1,6E0,1.9E1,5E0,2.9E1,2.6E1,4.8E1,9E0,1.6E1,2.5E1,1E0,2E0,9.3E1,2.6E1,1E0,1E0,8E0,4E0,2.1E1,2E0,4E0,1.17E2],"tree_param":{"num_deleted":"0","num_feature":"21","num_nodes":"73","size_leaf_vector":"0"}},{"base_weights":[1.1515977E3,8.4101294E2,1.5760192E3,6.448128E2,1.0748418E3,1.5016095E3,2.84009E3,6.5768463E2,-2.1468701E2,1.0924279E3,-1.0453145E3,1.4306119E3,1.9648682E3,7.0346875E2,2.9424583E3,4.7154807E2,7.394681E2,9.517578E0,-2.925944E2,1.4021139E3,9.849926E2,1.5082705E3,6.222138E2,2.380225E3,1.4094982E3,3.055225E3,7.3824414E2,4.037534E2,6.708833E2,8.9823846E2,6.059167E2,1.1453523E3,3.1757837E3,5.1166034E2,1.118593E3,1.3544861E3,1.9075686E3,9.616656E2,-4.9984375E2,2.8927148E2,2.4862063E3,1.6267194E3,2.968496E2,4.473565E2,-1.963086E1,7.037174E1,7.516441E2,7.932095E2,2.0209508E3,3.8319186E2,7.8157654E2,1.5260059E3,7.976517E2,3.5503506E3,8.387578E2,7.280518E2,-2.2852051E2,1.5742716E3,1.0074966E3,1.4710767E3,5.8084393E2,1.7101462E3,2.8143433E3,3.1797736E2,1.570023E3,7.035E2,-8.812125E2,2.8502373E3,1.3437767E3,4.029518E2,1.7971012E3,4.09E2,1.2313281E2],"categories":[],"categories_nodes":[],"categories_segments":[],"categories_sizes":[],"default_left":[1,1,1,1,1,1,1,1,1,1,0,1,1,0,1,1,1,0,0,1,1,1,1,1,1,0,0,1,1,1,1,1,1,1,1,1,1,1,1,0,1,1,1,0,0,0,0,0,0,0,0,0,0,0,0,0,0,0,0,0,0,0,0,0,0,0,0,0,0,0,0,0,0],"id":10,"left_children":[1,3,5,7,9,11,13,15,17,19,-1,21,23,-1,25,27,29,-1,-1,31,33,35,37,39,41,-1,-1,43,45,47,49,51,53,55,57,59,61,63,65,-1,67,69,71,-1,-1,-1,-1,-1,-1,-1,-1,-1,-1,-1,-1,-1,-1,-1,-1,-1,-1,-1,-1,-1,-1,-1,-1,-1,-1,-1,-1,-1,-1],"loss_changes":[8.949766E7,1.7657856E7,2.301248E7,2.575128E6,7.890512E6,6.266752E6,1.210904E6,2.954664E6,7.265358E4,4.607712E6,0E0,1.4316832E7,4.48808E6,0E0,1.224368E6,6.61585E5,2.615144E6,0E0,0E0,1.6400656E7,8.091184E6,1.0986912E7,9.241023E6,3.26964E6,3.625852E6,0E0,0E0,1.005668E6,7.2307E5,6.179512E6,2.986906E6,4.07692E6,1.398976E6,5.2917765E6,3.780104E6,1.3848064E7,5.749088E6,6.549434E6,3.3734395E6,0E0,3.23988E6,2.194968E6,2.7568312E4,0E0,0E0,0E0,0E0,0E0,0E0,0E0,0E0,0E0,0E0,0E0,0E0,0E0,0E0,0E0,0E0,0E0,0E0,0E0,0E0,0E0,0E0,0E0,0E0,0E0,0E0,0E0,0E0,0E0,0E0],"parents":[2147483647,0,0,1,1,2,2,3,3,4,4,5,5,6,6,7,7,8,8,9,9,11,11,12,12,14,14,15,15,16,16,19,19,20,20,21,21,22,22,23,23,24,24,27,27,28,28,29,29,30,30,31,31,32,32,33,33,34,34,35,35,36,36,37,37,38,38,40,40,41,41,42,42],"right_children":[2,4,6,8,10,12,14,16,18,20,-1,22,24,-1,26,28,30,-1,-1,32,34,36,38,40,42,-1,-1,44,46,48,50,52,54,56,58,60,62,64,66,-1,68,70,72,-1,-1,-1,-1,-1,-1,-1,-1,-1,-1,-1,-1,-1,-1,-1,-1,-1,-1,-1,-1,-1,-1,-1,-1,-1,-1,-1,-1,-1,-1],"split_conditions":[4.124391E4,3.132341E4,6.1308363E4,3.1225664E4,4.1176875E4,5.836435E4,4.710115E4,1.968111E4,3.2210316E4,3.3501625E4,-3.1359436E2,5.6718117E4,6.029194E4,2.1104063E2,6.0805094E4,2.0952979E4,2.2458426E4,2.8552735E0,-8.777832E1,3.3413777E4,3.53355E4,4.888574E4,5.7670816E4,5.313879E4,6.08815E4,9.1656757E2,2.2147325E2,1.9636775E4,2.0817121E4,2.6097469E4,2.900277E4,3.132341E4,3.5313316E4,3.5819508E4,3.5393355E4,4.7207402E4,5.696614E4,5.3622547E4,5.6625414E4,8.678145E1,6.2771016E4,5.403203E4,5.895105E4,1.3420695E2,-5.889258E0,2.1111523E1,2.2549324E2,2.3796284E2,6.062853E2,1.14957565E2,2.3447298E2,4.578018E2,2.3929552E2,1.0651052E3,2.5162735E2,2.1841556E2,-6.855615E1,4.722815E2,3.02249E2,4.4132303E2,1.7425319E2,5.130439E2,8.4430304E2,9.539321E1,4.710069E2,2.1105E2,-2.6436377E2,8.550712E2,4.0313303E2,1.2088555E2,5.391304E2,1.22700005E2,3.6939846E1],"split_indices":[19,17,20,17,19,7,3,20,0,14,0,3,10,0,4,3,2,0,0,14,12,1,8,10,2,0,0,19,2,15,6,14,4,10,16,1,9,16,4,0,4,14,0,0,0,0,0,0,0,0,0,0,0,0,0,0,0,0,0,0,0,0,0,0,0,0,0,0,0,0,0,0,0],"split_type":[0,0,0,0,0,0,0,0,0,0,0,0,0,0,0,0,0,0,0,0,0,0,0,0,0,0,0,0,0,0,0,0,0,0,0,0,0,0,0,0,0,0,0,0,0,0,0,0,0,0,0,0,0,0,0,0,0,0,0,0,0,0,0,0,0,0,0,0,0,0,0,0,0],"sum_hessian":[6.88E2,3.99E2,2.89E2,2.19E2,1.8E2,2.75E2,1.4E1,2.16E2,3E0,1.79E2,1E0,2.42E2,3.3E1,1E0,1.3E1,6.8E1,1.48E2,1E0,2E0,4.3E1,1.36E2,2.2E2,2.2E1,1.7E1,1.6E1,1.2E1,1E0,5.3E1,1.5E1,6.5E1,8.3E1,3.9E1,4E0,3.1E1,1.05E2,1.62E2,5.8E1,1.7E1,5E0,1E0,1.6E1,1.3E1,3E0,4.8E1,5E0,2E0,1.3E1,6.1E1,4E0,3.8E1,4.5E1,1.7E1,2.2E1,3E0,1E0,2.4E1,7E0,1.8E1,8.7E1,1.4E2,2.2E1,5E1,8E0,9E0,8E0,1E0,4E0,1.1E1,5E0,2E0,1.1E1,1E0,2E0],"tree_param":{"num_deleted":"0","num_feature":"21","num_nodes":"73","size_leaf_vector":"0"}},{"base_weights":[8.2078864E2,6.694026E2,1.2937134E3,5.6739685E2,1.000869E3,1.9678688E3,1.1825055E3,5.839468E2,-4.522762E2,1.4339526E3,8.241756E2,1.5509958E3,2.6395972E3,9.4597186E2,1.6871144E3,5.0368332E2,8.408973E2,5.211699E2,-7.013789E2,9.236387E2,1.7882196E3,3.45724E2,1.0381251E3,2.4088477E3,9.420771E2,5.0427344E2,2.9114387E3,1.7926602E3,8.116694E2,2.040841E3,1.0956547E3,5.160396E2,-5.551377E2,9.7214087E2,-4.1535458E1,-8.507344E2,2.2699219E1,1.8374619E3,5.7141315E2,2.6566543E3,1.2883033E3,-6.0189294E2,5.2141846E2,-1.296875E2,1.1007653E3,2.6099038E3,7.017832E2,1.070448E3,-1.708164E2,4.0802188E2,2.3627192E3,2.2630154E2,1.1054784E3,2.1421404E3,-2.9647266E2,5.962471E2,1.3372885E3,4.9241232E2,1.441416E3,-4.438086E1,-7.105964E2,1.1456433E3,5.3766956E2,-8.2111914E2,2.7445157E2,7.5943317E2,1.18694534E2,5.53986E2,1.769793E3,2.6274414E2,-8.837383E2,7.109295E2,-6.512471E2,-2.2450911E2,7.738867E1,1.154193E3,-2.6347525E2,-1.8583594E2,6.029453E2,5.217949E2,2.5276104E3,1.1000826E3,-3.834593E2,1.2588804E3,-2.9818848E1,4.6816666E2,2.2621313E3,7.4574347E2,9.850521E1,2.4357422E2,1.4145739E3],"categories":[],"categories_nodes":[],"categories_segments":[],"categories_sizes":[],"default_left":[1,1,1,1,1,1,1,1,1,1,1,1,1,1,1,1,1,0,1,1,1,1,1,1,1,0,0,1,1,1,1,1,1,1,1,0,0,0,1,0,1,1,1,1,1,0,0,0,0,1,1,1,1,1,0,1,1,0,0,0,0,0,0,0,0,0,0,0,0,0,0,0,0,0,0,0,0,0,0,0,0,0,0,0,0,0,0,0,0,0,0],"id":11,"left_children":[1,3,5,7,9,11,13,15,17,19,21,23,25,27,29,31,33,-1,35,37,39,41,43,45,47,-1,-1,49,51,53,55,57,59,61,63,-1,-1,-1,65,-1,67,69,71,73,75,-1,-1,-1,-1,77,79,81,83,85,-1,87,89,-1,-1,-1,-1,-1,-1,-1,-1,-1,-1,-1,-1,-1,-1,-1,-1,-1,-1,-1,-1,-1,-1,-1,-1,-1,-1,-1,-1,-1,-1,-1,-1,-1,-1],"loss_changes":[4.84624E7,1.7149344E7,1.0118208E7,7.064928E6,8.153976E6,2.06656E6,1.5710816E7,7.76408E6,2.0629539E6,4.495104E6,8.751536E6,6.088472E6,2.595124E6,1.0029896E7,7.178616E6,4.276816E6,1.081104E7,0E0,6.68181E5,4.1E6,4.826172E6,5.1420785E6,4.60502E6,2.27708E5,1.754345E6,0E0,0E0,9.297188E6,1.505662E7,7.02784E6,1.495448E6,5.893192E6,2.8606938E5,5.489952E6,3.4277555E6,0E0,0E0,0E0,1.0164215E6,0E0,3.969486E6,1.4506668E6,6.018818E6,9.591566E4,4.531616E6,0E0,0E0,0E0,0E0,6.90833E5,1.413076E6,1.6938558E7,1.0312784E7,4.163352E6,0E0,5.2182525E5,6.69784E5,0E0,0E0,0E0,0E0,0E0,0E0,0E0,0E0,0E0,0E0,0E0,0E0,0E0,0E0,0E0,0E0,0E0,0E0,0E0,0E0,0E0,0E0,0E0,0E0,0E0,0E0,0E0,0E0,0E0,0E0,0E0,0E0,0E0,0E0],"parents":[2147483647,0,0,1,1,2,2,3,3,4,4,5,5,6,6,7,7,8,8,9,9,10,10,11,11,12,12,13,13,14,14,15,15,16,16,18,18,19,19,20,20,21,21,22,22,23,23,24,24,27,27,28,28,29,29,30,30,31,31,32,32,33,33,34,34,38,38,40,40,41,41,42,42,43,43,44,44,49,49,50,50,51,51,52,52,53,53,55,55,56,56],"right_children":[2,4,6,8,10,12,14,16,18,20,22,24,26,28,30,32,34,-1,36,38,40,42,44,46,48,-1,-1,50,52,54,56,58,60,62,64,-1,-1,-1,66,-1,68,70,72,74,76,-1,-1,-1,-1,78,80,82,84,86,-1,88,90,-1,-1,-1,-1,-1,-1,-1,-1,-1,-1,-1,-1,-1,-1,-1,-1,-1,-1,-1,-1,-1,-1,-1,-1,-1,-1,-1,-1,-1,-1,-1,-1,-1,-1],"split_conditions":[4.718246E4,4.251001E4,4.45802E4,4.651884E4,4.5293766E4,4.1975277E4,5.8122812E4,3.786972E4,3.776124E4,4.251001E4,4.676171E4,4.6734992E4,4.0773766E4,4.345567E4,6.0745734E4,4.1932844E4,4.1800367E4,1.5635098E2,4.0482633E4,4.1797535E4,4.4874117E4,4.1207805E4,4.5865406E4,3.9143645E4,5.4573164E4,1.5128204E2,8.7343164E2,4.6301645E4,4.8943125E4,6.3629242E4,5.684874E4,3.9292797E4,3.696318E4,3.9736562E4,4.196678E4,-2.5522032E2,6.809766E0,5.512386E2,3.965832E4,7.9699634E2,4.4771562E4,4.5527883E4,4.688837E4,4.810528E4,5.5932258E4,7.829712E2,2.1053497E2,3.211344E2,-5.1244923E1,3.553919E4,4.0880664E4,4.64674E4,5.736064E4,4.882904E4,-8.89418E1,6.294103E4,5.8361797E4,1.4772371E2,4.3242484E2,-1.3314259E1,-2.1317892E2,3.43693E2,1.6130087E2,-2.4633575E2,8.233547E1,2.2782996E2,3.560836E1,1.6619582E2,5.309379E2,7.882324E1,-2.651215E2,2.1327885E2,-1.9537413E2,-6.735274E1,2.3216602E1,3.462579E2,-7.904258E1,-5.5750782E1,1.808836E2,1.5653848E2,7.5828314E2,3.300248E2,-1.1503779E2,3.7766412E2,-8.945655E0,1.4045E2,6.786394E2,2.2372305E2,2.9551565E1,7.3072266E1,4.2437216E2],"split_indices":[20,1,7,12,1,4,8,20,1,8,1,16,2,1,7,10,2,0,0,2,10,7,2,0,19,0,0,7,4,1,17,13,1,9,2,0,0,0,14,0,13,0,19,0,13,0,0,0,0,0,3,3,8,20,0,10,13,0,0,0,0,0,0,0,0,0,0,0,0,0,0,0,0,0,0,0,0,0,0,0,0,0,0,0,0,0,0,0,0,0,0],"split_type":[0,0,0,0,0,0,0,0,0,0,0,0,0,0,0,0,0,0,0,0,0,0,0,0,0,0,0,0,0,0,0,0,0,0,0,0,0,0,0,0,0,0,0,0,0,0,0,0,0,0,0,0,0,0,0,0,0,0,0,0,0,0,0,0,0,0,0,0,0,0,0,0,0,0,0,0,0,0,0,0,0,0,0,0,0,0,0,0,0,0,0],"sum_hessian":[6.88E2,5.23E2,1.65E2,4.02E2,1.21E2,2.1E1,1.44E2,3.96E2,6E0,3.3E1,8.8E1,1.5E1,6E0,1E2,4.4E1,3.04E2,9.2E1,1E0,5E0,1.5E1,1.8E1,2.8E1,6E1,5E0,1E1,1E0,5E0,1.2E1,8.8E1,2.6E1,1.8E1,3.01E2,3E0,8E1,1.2E1,4E0,1E0,3E0,1.2E1,5E0,1.3E1,4E0,2.4E1,3E0,5.7E1,4E0,1E0,9E0,1E0,4E0,8E0,3E1,5.8E1,2.5E1,1E0,7E0,1.1E1,2.95E2,6E0,1E0,2E0,5.6E1,2.4E1,3E0,9E0,8E0,4E0,6E0,7E0,1E0,3E0,2.1E1,3E0,2E0,1E0,5.5E1,2E0,1E0,3E0,1E0,7E0,1.2E1,1.8E1,5.1E1,7E0,2E0,2.3E1,5E0,2E0,1E0,1E1],"tree_param":{"num_deleted":"0","num_feature":"21","num_nodes":"91","size_leaf_vector":"0"}},{"base_weights":[5.866837E2,4.1896408E2,8.301779E2,4.347966E2,-5.5465125E2,7.516904E2,1.2130992E3,4.0549808E2,1.1675721E3,-1.8370781E2,-9.8800653E2,8.8922003E2,5.5713324E2,1.4413188E3,6.453573E2,4.1798492E2,-9.039795E2,2.1818699E3,8.436902E2,-2.4758105E2,3.589258E1,7.304294E2,1.2046362E3,-6.6427637E2,6.562101E2,4.208444E2,1.6147087E3,3.145217E2,9.7852344E2,2.9999747E2,5.606937E2,-1.3026666E3,1.4604102E2,9.149785E2,-5.8847656E0,5.278585E2,1.00973303E3,1.4919333E3,4.8243277E2,-2.2417747E3,2.3518555E2,7.0434686E2,-3.318672E2,6.058141E2,-2.5200195E2,2.1957092E3,1.0780391E3,9.752344E1,4.6861563E2,1.2545375E3,1.9232552E2,3.3745923E2,-2.5927484E2,2.1872441E3,5.2906384E2,3.1620703E2,1.0794349E3,8.1646014E2,7.8279724E1,1.8488867E2,1.0751515E3,1.1142493E3,1.9970791E3,-5.949134E2,1.1470599E3,-4.6427603E2,7.0098535E2,3.5839584E2,9.2193744E2,3.4786588E2,-9.0097784E2,6.902578E2,1.3401953E2,2.291031E3,5.7358594E2,5.4696765E2,1.3419851E3,5.4424316E2,8.3052734E1],"categories":[],"categories_nodes":[],"categories_segments":[],"categories_sizes":[],"default_left":[1,1,1,1,1,1,1,1,1,1,0,1,1,1,1,1,1,0,1,0,0,1,1,1,1,1,1,1,1,1,1,0,0,1,0,1,1,1,1,0,1,1,1,1,0,1,1,0,1,0,0,0,0,0,0,0,0,0,0,0,0,0,0,0,0,0,0,0,0,0,0,0,0,0,0,0,0,0,0],"id":12,"left_children":[1,3,5,7,9,11,13,15,17,19,-1,21,23,25,27,29,31,-1,33,-1,-1,35,37,39,41,43,45,47,49,51,53,-1,-1,55,-1,57,59,61,63,-1,65,67,69,71,-1,73,75,-1,77,-1,-1,-1,-1,-1,-1,-1,-1,-1,-1,-1,-1,-1,-1,-1,-1,-1,-1,-1,-1,-1,-1,-1,-1,-1,-1,-1,-1,-1,-1],"loss_changes":[2.7790096E7,6.561224E6,7.503376E6,8.200136E6,9.4374775E5,5.79256E6,5.030048E6,6.754828E6,3.086868E6,7.9019266E4,0E0,5.931672E6,1.253724E7,4.982544E6,1.345581E6,6.348048E6,1.8647618E6,0E0,7.92726E5,0E0,0E0,4.728828E6,8.409668E6,1.1878429E7,4.6571E6,8.9940325E5,6.051688E6,2.55242E5,1.2777325E6,4.571076E6,7.794696E6,0E0,0E0,8.40337E5,0E0,7.202043E6,1.8517E6,3.689112E6,1.070687E7,0E0,2.280305E6,6.36912E6,2.247636E6,1.066925E5,0E0,5.41372E5,1.508766E6,0E0,1.00595E5,0E0,0E0,0E0,0E0,0E0,0E0,0E0,0E0,0E0,0E0,0E0,0E0,0E0,0E0,0E0,0E0,0E0,0E0,0E0,0E0,0E0,0E0,0E0,0E0,0E0,0E0,0E0,0E0,0E0,0E0],"parents":[2147483647,0,0,1,1,2,2,3,3,4,4,5,5,6,6,7,7,8,8,9,9,11,11,12,12,13,13,14,14,15,15,16,16,18,18,21,21,22,22,23,23,24,24,25,25,26,26,27,27,28,28,29,29,30,30,33,33,35,35,36,36,37,37,38,38,40,40,41,41,42,42,43,43,45,45,46,46,48,48],"right_children":[2,4,6,8,10,12,14,16,18,20,-1,22,24,26,28,30,32,-1,34,-1,-1,36,38,40,42,44,46,48,50,52,54,-1,-1,56,-1,58,60,62,64,-1,66,68,70,72,-1,74,76,-1,78,-1,-1,-1,-1,-1,-1,-1,-1,-1,-1,-1,-1,-1,-1,-1,-1,-1,-1,-1,-1,-1,-1,-1,-1,-1,-1,-1,-1,-1,-1],"split_conditions":[4.180625E4,4.268003E4,5.8122812E4,4.303096E4,4.5699883E4,4.778608E4,6.1308363E4,4.3171156E4,4.2721812E4,4.6640527E4,-2.9640198E2,4.7995844E4,4.6617203E4,5.36361E4,5.8361797E4,3.1225664E4,3.8312453E4,6.54561E2,5.636639E4,-7.427432E1,1.0767774E1,4.402371E4,4.709057E4,4.6656266E4,5.7670816E4,6.0555797E4,5.9908844E4,6.029194E4,6.1769652E4,3.1195602E4,2.9022277E4,-3.9080002E2,4.3812305E1,4.520253E4,-1.7654297E0,3.9187203E4,4.2721883E4,4.6793758E4,4.760792E4,-6.725324E2,4.8244438E4,5.351286E4,5.743175E4,6.1881883E4,-7.5600586E1,6.016446E4,5.9908844E4,2.9257032E1,6.101442E4,3.7636127E2,5.769766E1,1.0123777E2,-7.7782455E1,6.561733E2,1.5871916E2,9.4862114E1,3.238305E2,2.4493805E2,2.3483917E1,5.5466602E1,3.2254547E2,3.3427478E2,5.991238E2,-1.7847403E2,3.4411798E2,-1.3928282E2,2.1029561E2,1.0751876E2,2.7658124E2,1.04359764E2,-2.7029337E2,2.0707735E2,4.020586E1,6.873093E2,1.7207579E2,1.640903E2,4.0259555E2,1.6327295E2,2.4915821E1],"split_indices":[18,16,8,12,0,6,10,13,11,9,0,20,9,15,17,4,0,0,1,0,0,3,2,2,8,0,4,12,17,3,3,0,0,0,0,4,9,9,2,0,7,9,3,7,0,3,1,0,2,0,0,0,0,0,0,0,0,0,0,0,0,0,0,0,0,0,0,0,0,0,0,0,0,0,0,0,0,0,0],"split_type":[0,0,0,0,0,0,0,0,0,0,0,0,0,0,0,0,0,0,0,0,0,0,0,0,0,0,0,0,0,0,0,0,0,0,0,0,0,0,0,0,0,0,0,0,0,0,0,0,0,0,0,0,0,0,0,0,0,0,0,0,0,0,0,0,0,0,0,0,0,0,0,0,0,0,0,0,0,0,0],"sum_hessian":[6.88E2,4.09E2,2.79E2,4.03E2,6E0,2.34E2,4.5E1,3.89E2,1.4E1,4E0,2E0,1.35E2,9.9E1,3.1E1,1.4E1,3.86E2,3E0,2E0,1.2E1,3E0,1E0,9.2E1,4.3E1,7E0,9.2E1,5E0,2.6E1,8E0,6E0,2.13E2,1.73E2,2E0,1E0,1.1E1,1E0,5.5E1,3.7E1,3E1,1.3E1,2E0,5E0,8.8E1,4E0,4E0,1E0,1.1E1,1.5E1,4E0,4E0,4E0,2E0,2E2,1.3E1,2E0,1.71E2,3E0,8E0,3.3E1,2.2E1,3E0,3.4E1,1.9E1,1.1E1,5E0,8E0,2E0,3E0,3.5E1,5.3E1,2E0,2E0,3E0,1E0,1E1,1E0,6E0,9E0,3E0,1E0],"tree_param":{"num_deleted":"0","num_feature":"21","num_nodes":"79","size_leaf_vector":"0"}},{"base_weights":[4.176658E2,3.2874063E2,6.749946E2,1.5107384E2,3.9681415E2,1.6868496E3,6.4769745E2,1.6614626E2,-4.1799756E2,4.0616333E2,-8.854043E2,4.484746E2,1.9501498E3,-1.5577539E2,6.825173E2,-6.435629E1,2.0040157E2,-5.0079556E2,-8.480176E1,8.2795557E2,3.821741E2,3.2905078E2,-7.2286426E2,6.4877026E2,1.474308E3,2.7300977E2,-2.0434486E2,5.0993555E2,1.773268E2,1.4675998E2,1.3100288E3,4.8213768E1,4.2376462E2,5.941699E2,-3.657129E2,7.9221423E2,4.779157E2,9.600521E1,2.139458E3,1.5508789E2,-2.7717432E2,5.4252342E1,9.5205566E2,5.5948914E1,2.507251E2,-1.8495703E2,2.679587E2,5.292666E2,1.5366562E3,1.6398802E2,-3.155078E2,8.0144666E2,3.7773862E2,6.41146E2,1.367659E3,-9.2211914E2,5.894973E2,3.5820898E2,-2.1420117E2],"categories":[],"categories_nodes":[],"categories_segments":[],"categories_sizes":[],"default_left":[1,1,1,1,1,1,1,1,1,1,0,0,0,1,1,1,1,0,0,1,1,1,0,1,1,0,1,1,1,1,1,1,1,0,0,1,1,1,0,0,0,0,0,0,0,0,0,0,0,0,0,0,0,0,0,0,0,0,0],"id":13,"left_children":[1,3,5,7,9,11,13,15,17,19,-1,-1,-1,21,23,25,27,-1,-1,29,31,33,-1,35,37,-1,39,41,43,45,47,49,51,-1,-1,53,55,57,-1,-1,-1,-1,-1,-1,-1,-1,-1,-1,-1,-1,-1,-1,-1,-1,-1,-1,-1,-1,-1],"loss_changes":[1.5544496E7,6.156576E6,3.768696E6,1.3045775E6,4.80704E6,4.29665E5,4.946304E6,1.1262242E6,6.788344E4,3.417296E6,0E0,0E0,0E0,2.4373752E6,3.479112E6,9.531086E5,7.88093E5,0E0,0E0,6.047075E6,4.854816E6,1.1382714E6,0E0,3.567192E6,5.295268E6,0E0,4.0946844E5,1.5600824E6,1.01940825E6,4.1139394E5,1.133064E6,1.7361232E6,5.120812E6,0E0,0E0,6.599232E6,1.2416164E7,3.2074062E5,0E0,0E0,0E0,0E0,0E0,0E0,0E0,0E0,0E0,0E0,0E0,0E0,0E0,0E0,0E0,0E0,0E0,0E0,0E0,0E0,0E0],"parents":[2147483647,0,0,1,1,2,2,3,3,4,4,5,5,6,6,7,7,8,8,9,9,13,13,14,14,15,15,16,16,19,19,20,20,21,21,23,23,24,24,26,26,27,27,28,28,29,29,30,30,31,31,32,32,35,35,36,36,37,37],"right_children":[2,4,6,8,10,12,14,16,18,20,-1,-1,-1,22,24,26,28,-1,-1,30,32,34,-1,36,38,-1,40,42,44,46,48,50,52,-1,-1,54,56,58,-1,-1,-1,-1,-1,-1,-1,-1,-1,-1,-1,-1,-1,-1,-1,-1,-1,-1,-1,-1,-1],"split_conditions":[4.700186E4,2.3210477E4,3.2327203E4,2.3657004E4,5.7013742E4,3.0715977E4,3.8107355E4,1.7946305E4,2.8823428E4,2.2790121E4,-2.656213E2,1.3454239E2,5.85045E2,4.4034457E4,6.3446105E4,1.7526969E4,1.8056598E4,-1.5023868E2,-2.5440529E1,2.2814559E4,2.9798754E4,3.8789645E4,-2.1685928E2,5.479987E4,5.856717E4,8.190293E1,1.7098904E4,1.671854E4,1.98693E4,1.8001553E4,1.8662262E4,2.9364047E4,3.2294527E4,1.7825098E2,-1.09713875E2,5.361169E4,4.8259977E4,6.325592E4,6.418374E2,4.6526367E1,-8.31523E1,1.6275703E1,2.856167E2,1.6784676E1,7.521753E1,-5.548711E1,8.038762E1,1.5877998E2,4.609969E2,4.9196407E1,-9.465234E1,2.40434E2,1.1332159E2,1.9234381E2,4.1029773E2,-2.7663574E2,1.768492E2,1.074627E2,-6.426035E1],"split_indices":[19,20,1,18,3,1,3,9,1,5,0,0,0,10,1,15,15,0,0,14,12,0,0,12,7,0,17,2,0,3,0,12,12,0,0,11,4,0,0,0,0,0,0,0,0,0,0,0,0,0,0,0,0,0,0,0,0,0,0],"split_type":[0,0,0,0,0,0,0,0,0,0,0,0,0,0,0,0,0,0,0,0,0,0,0,0,0,0,0,0,0,0,0,0,0,0,0,0,0,0,0,0,0,0,0,0,0,0,0,0,0,0,0,0,0,0,0,0,0,0,0],"sum_hessian":[6.88E2,5.13E2,1.75E2,1.43E2,3.7E2,3E0,1.72E2,1.4E2,3E0,3.68E2,2E0,1E0,2E0,7E0,1.65E2,1.8E1,1.22E2,2E0,1E0,1.8E1,3.5E2,4E0,3E0,1.6E2,5E0,5E0,1.3E1,7E0,1.15E2,8E0,1E1,3.9E1,3.11E2,3E0,1E0,8.5E1,7.5E1,2E0,3E0,2E0,1.1E1,4E0,3E0,4.4E1,7.1E1,2E0,6E0,3E0,7E0,3E1,9E0,3.2E1,2.79E2,6.9E1,1.6E1,5E0,7E1,1E0,1E0],"tree_param":{"num_deleted":"0","num_feature":"21","num_nodes":"59","size_leaf_vector":"0"}},{"base_weights":[2.963E2,1.8767502E2,4.188048E2,2.1582286E2,-1.3571315E2,1.4161183E3,3.9546097E2,1.7348064E2,5.4553827E2,-6.7291437E2,2.1071465E2,3.8120312E2,1.5250703E3,-7.8067285E2,4.0918414E2,1.9896854E2,-2.92958E2,1.2029302E3,1.119375E2,-7.936922E2,-4.6016926E1,6.032862E2,-2.925078E2,-1.0858802E3,6.747461E1,3.6227277E2,7.403753E2,1.4611472E2,4.28569E2,3.239746E2,-4.602482E2,1.7469252E3,6.4616406E2,-9.7597003E2,4.495958E2,-8.7837195E2,-1.5787109E1,9.84668E1,-1.6749219E2,1.1133594E3,2.7283887E2,-7.3650586E2,5.2242188E1,7.2243665E2,3.1394952E2,1.0121129E3,3.03479E2,1.6100464E2,-5.6804456E2,5.71817E2,-5.6180138E1,5.3238934E2,-1.5063477E2,-7.331195E2,-2.575143E2,7.301089E2,-1.2697266E1,2.084791E2,1.6660586E3,-3.7020834E2,-9.706747E2,-5.737793E1,4.8244452E2,9.8009766E1,-2.6195312E1,3.792584E2,1.1948312E3,-7.067448E0,3.5688297E2,1.1308295E3,1.6550195E2,1.0521023E2,6.163919E2],"categories":[],"categories_nodes":[],"categories_segments":[],"categories_sizes":[],"default_left":[1,1,1,1,1,1,1,1,1,1,1,0,0,1,1,1,1,1,1,1,1,1,1,0,0,1,1,1,1,1,1,0,1,0,1,1,0,0,0,0,1,0,1,1,1,1,1,0,0,0,0,0,0,0,0,0,0,0,0,0,0,0,0,0,0,0,0,0,0,0,0,0,0],"id":14,"left_children":[1,3,5,7,9,11,13,15,17,19,21,-1,-1,23,25,27,29,31,33,35,37,39,41,-1,-1,43,45,47,49,51,53,-1,55,-1,57,59,-1,-1,-1,-1,61,-1,63,65,67,69,71,-1,-1,-1,-1,-1,-1,-1,-1,-1,-1,-1,-1,-1,-1,-1,-1,-1,-1,-1,-1,-1,-1,-1,-1,-1,-1],"loss_changes":[9.089984E6,3.369973E6,6.959788E6,4.624137E6,5.724836E6,2.07932E5,5.435908E6,3.636739E6,1.0697083E7,8.7206E5,3.929932E6,0E0,0E0,1.1087125E6,4.610284E6,3.408064E6,1.8004172E6,3.414368E6,9.254977E6,6.44861E5,6.9146016E4,1.550308E6,1.4160916E6,0E0,0E0,4.594176E6,4.204248E6,2.5797605E6,3.712411E6,4.758587E5,5.3037475E5,0E0,5.070425E5,0E0,5.2255425E6,6.2792E4,0E0,0E0,0E0,0E0,5.814041E5,0E0,2.4106762E4,4.734545E6,3.392986E6,2.124502E6,9.278029E5,0E0,0E0,0E0,0E0,0E0,0E0,0E0,0E0,0E0,0E0,0E0,0E0,0E0,0E0,0E0,0E0,0E0,0E0,0E0,0E0,0E0,0E0,0E0,0E0,0E0,0E0],"parents":[2147483647,0,0,1,1,2,2,3,3,4,4,5,5,6,6,7,7,8,8,9,9,10,10,13,13,14,14,15,15,16,16,17,17,18,18,19,19,20,20,21,21,22,22,25,25,26,26,27,27,28,28,29,29,30,30,32,32,34,34,35,35,40,40,42,42,43,43,44,44,45,45,46,46],"right_children":[2,4,6,8,10,12,14,16,18,20,22,-1,-1,24,26,28,30,32,34,36,38,40,42,-1,-1,44,46,48,50,52,54,-1,56,-1,58,60,-1,-1,-1,-1,62,-1,64,66,68,70,72,-1,-1,-1,-1,-1,-1,-1,-1,-1,-1,-1,-1,-1,-1,-1,-1,-1,-1,-1,-1,-1,-1,-1,-1,-1,-1],"split_conditions":[3.9380695E4,3.8147477E4,3.2327203E4,3.6432234E4,3.763495E4,2.9695172E4,3.6432234E4,4.1695188E4,3.612778E4,3.8175016E4,3.9380695E4,1.1436094E2,4.5752112E2,3.8018227E4,5.9090402E4,3.30281E4,3.3568594E4,3.7422094E4,3.6287883E4,3.880986E4,3.9085445E4,3.7833516E4,3.8060258E4,-3.257641E2,2.0242384E1,4.116018E4,6.1051312E4,3.596316E4,3.776124E4,5.472553E4,3.5752406E4,5.240776E2,4.4524055E4,-2.9279102E2,4.1883664E4,3.1644402E4,-4.736133E0,2.9540041E1,-5.0247658E1,3.340078E2,3.9675336E4,-2.2095177E2,4.0157188E4,4.079985E4,4.2762195E4,6.33239E4,6.3446105E4,4.8301395E1,-1.7041338E2,1.715451E2,-1.6854042E1,1.5971681E2,-4.519043E1,-2.1993587E2,-7.7254295E1,2.1903267E2,-3.8091798E0,6.254373E1,4.998176E2,-1.1106251E2,-2.9120242E2,-1.7213379E1,1.4473337E2,2.9402931E1,-7.858594E0,1.1377752E2,3.5844937E2,-2.1202345E0,1.07064896E2,3.3924884E2,4.965059E1,3.156307E1,1.8491757E2],"split_indices":[14,15,1,14,13,1,7,0,9,12,3,0,0,0,5,20,14,14,18,14,0,18,16,0,0,13,6,13,19,0,17,0,17,0,5,4,0,0,0,0,0,0,10,12,13,13,7,0,0,0,0,0,0,0,0,0,0,0,0,0,0,0,0,0,0,0,0,0,0,0,0,0,0],"split_type":[0,0,0,0,0,0,0,0,0,0,0,0,0,0,0,0,0,0,0,0,0,0,0,0,0,0,0,0,0,0,0,0,0,0,0,0,0,0,0,0,0,0,0,0,0,0,0,0,0,0,0,0,0,0,0,0,0,0,0,0,0,0,0,0,0,0,0,0,0,0,0,0,0],"sum_hessian":[6.88E2,3.66E2,3.22E2,3.37E2,2.9E1,6E0,3.16E2,3E2,3.7E1,1.1E1,1.8E1,1E0,5E0,3E0,3.13E2,2.85E2,1.5E1,1.4E1,2.3E1,9E0,2E0,1E1,8E0,2E0,1E0,2.76E2,3.7E1,2.33E2,5.2E1,3E0,1.2E1,6E0,8E0,5E0,1.8E1,8E0,1E0,1E0,1E0,3E0,7E0,3E0,5E0,3.1E1,2.45E2,2.2E1,1.5E1,2.29E2,4E0,4E1,1.2E1,2E0,1E0,4E0,8E0,7E0,1E0,1.6E1,2E0,2E0,6E0,3E0,4E0,3E0,2E0,1.9E1,1.2E1,2.9E1,2.16E2,1.9E1,3E0,1E1,5E0],"tree_param":{"num_deleted":"0","num_feature":"21","num_nodes":"73","size_leaf_vector":"0"}},{"base_weights":[2.1051872E2,1.8261086E2,4.9483875E2,1.9660487E2,-4.956136E2,1.6804166E3,4.2616803E2,1.028236E2,2.6976065E2,-8.627734E1,-1.8313086E3,2.622846E2,7.848867E2,1.3825467E2,-4.0482898E2,6.469762E2,2.4586443E2,-6.762031E2,4.033555E1,5.624207E2,-1.01069975E1,1.2163848E3,3.997166E2,1.1895237E2,6.526341E2,-6.942007E2,-1.5757422E2,8.1087787E2,-2.113501E2,2.0492285E2,4.7956802E2,-1.6242317E2,2.7557892E2,7.807656E2,1.3730762E2,-2.5137137E2,3.2867383E2,1.5243766E3,5.272988E2,6.125931E2,1.202207E2,1.3330753E2,-4.798646E2,1.6678073E3,1.24326454E2,-1.3155469E2,-7.5578516E2,6.9845146E1,-4.4444647E2,1.7765071E2,1.0599183E3,-1.3419922E1,-2.7285352E2,2.2731932E2,-5.849717E2,1.096722E3,2.664487E2,7.197135E1,-2.9761328E2,1.228125E1,3.38333E2,-1.8217578E2,8.761921E2,-1.487334E2,3.386789E2,-4.1122134E2,3.0298828E1,5.8197736E2,6.2808594E1,1.4937695E2,6.7536096E2,1.7366406E2,8.889323E0],"categories":[],"categories_nodes":[],"categories_segments":[],"categories_sizes":[],"default_left":[1,1,1,1,1,0,1,1,1,1,0,1,1,1,1,1,1,0,1,1,1,1,1,1,1,1,1,1,1,1,1,1,1,1,1,1,1,0,0,1,1,0,0,0,0,0,0,0,0,0,0,0,0,0,0,0,0,0,0,0,0,0,0,0,0,0,0,0,0,0,0,0,0],"id":15,"left_children":[1,3,5,7,9,-1,11,13,15,17,-1,19,21,23,25,27,29,-1,31,33,35,37,39,41,43,45,47,49,51,53,55,57,59,61,63,65,67,-1,-1,69,71,-1,-1,-1,-1,-1,-1,-1,-1,-1,-1,-1,-1,-1,-1,-1,-1,-1,-1,-1,-1,-1,-1,-1,-1,-1,-1,-1,-1,-1,-1,-1,-1],"loss_changes":[5.376688E6,6.06733E6,4.250143E6,4.205276E6,6.949728E6,0E0,3.262632E6,4.9483445E6,2.959788E6,8.488893E5,0E0,3.4393758E6,2.505393E6,2.454189E6,1.1784855E6,2.985002E6,3.030526E6,0E0,5.2173688E5,1.749221E6,1.9625412E6,8.9406E5,5.808326E5,2.1872095E6,4.619561E6,1.7777475E5,7.486859E5,2.49259E6,4.503186E4,5.08641E6,6.021096E6,2.1154655E5,7.8459875E4,1.354191E6,5.1117644E5,6.428092E5,6.368929E5,0E0,0E0,7.356725E4,3.415579E4,0E0,0E0,0E0,0E0,0E0,0E0,0E0,0E0,0E0,0E0,0E0,0E0,0E0,0E0,0E0,0E0,0E0,0E0,0E0,0E0,0E0,0E0,0E0,0E0,0E0,0E0,0E0,0E0,0E0,0E0,0E0,0E0],"parents":[2147483647,0,0,1,1,2,2,3,3,4,4,6,6,7,7,8,8,9,9,11,11,12,12,13,13,14,14,15,15,16,16,18,18,19,19,20,20,21,21,22,22,23,23,24,24,25,25,26,26,27,27,28,28,29,29,30,30,31,31,32,32,33,33,34,34,35,35,36,36,39,39,40,40],"right_children":[2,4,6,8,10,-1,12,14,16,18,-1,20,22,24,26,28,30,-1,32,34,36,38,40,42,44,46,48,50,52,54,56,58,60,62,64,66,68,-1,-1,70,72,-1,-1,-1,-1,-1,-1,-1,-1,-1,-1,-1,-1,-1,-1,-1,-1,-1,-1,-1,-1,-1,-1,-1,-1,-1,-1,-1,-1,-1,-1,-1,-1],"split_conditions":[5.6718117E4,5.5792133E4,5.4481465E4,3.4753617E4,5.6809457E4,5.04125E2,6.068243E4,3.528022E4,3.5789258E4,4.6972586E4,-5.493926E2,5.7751344E4,6.2163188E4,3.776124E4,3.7041305E4,3.6346203E4,5.1034723E4,-2.0286095E2,5.6347492E4,5.7558266E4,6.0067777E4,6.016446E4,6.101442E4,3.6151062E4,3.826787E4,3.0400176E4,4.2110203E4,3.144354E4,3.3713105E4,5.5532887E4,4.671964E4,5.0044934E4,5.582203E4,5.012808E4,5.5834703E4,5.994136E4,6.1138547E4,4.57313E2,1.5818965E2,5.1148312E4,6.0078242E4,3.999226E1,-1.4395938E2,5.003422E2,3.729794E1,-3.9466408E1,-2.2673555E2,2.0953545E1,-1.3333395E2,5.3295216E1,3.1797552E2,-4.0259767E0,-8.185606E1,6.81958E1,-1.7549152E2,3.2901663E2,7.9934616E1,2.1591406E1,-8.928399E1,3.684375E0,1.0149991E2,-5.4652737E1,2.6285764E2,-4.462002E1,1.01603676E2,-1.2336641E2,9.089649E0,1.7459322E2,1.8842579E1,4.4813087E1,2.0260829E2,5.209922E1,2.6667972E0],"split_indices":[11,11,12,12,17,0,17,9,12,17,0,15,17,18,8,13,12,0,10,2,7,3,12,17,18,11,0,16,0,19,2,0,3,0,14,11,6,0,0,0,1,0,0,0,0,0,0,0,0,0,0,0,0,0,0,0,0,0,0,0,0,0,0,0,0,0,0,0,0,0,0,0,0],"split_type":[0,0,0,0,0,0,0,0,0,0,0,0,0,0,0,0,0,0,0,0,0,0,0,0,0,0,0,0,0,0,0,0,0,0,0,0,0,0,0,0,0,0,0,0,0,0,0,0,0,0,0,0,0,0,0,0,0,0,0,0,0,0,0,0,0,0,0,0,0,0,0,0,0],"sum_hessian":[6.88E2,6.28E2,6E1,6.16E2,1.2E1,2E0,5.8E1,2.71E2,3.45E2,1E1,2E0,4.1E1,1.7E1,2.54E2,1.7E1,1.9E1,3.26E2,1E0,9E0,1.9E1,2.2E1,7E0,1E1,2.46E2,8E0,7E0,1E1,1.6E1,3E0,2.79E2,4.7E1,5E0,4E0,1.2E1,7E0,1.3E1,9E0,4E0,3E0,5E0,5E0,2.41E2,5E0,2E0,6E0,1E0,6E0,6E0,4E0,5E0,1.1E1,1E0,2E0,2.72E2,7E0,1.1E1,3.6E1,2E0,3E0,1E0,3E0,1E0,1.1E1,3E0,4E0,8E0,5E0,4E0,5E0,1E0,4E0,3E0,2E0],"tree_param":{"num_deleted":"0","num_feature":"21","num_nodes":"73","size_leaf_vector":"0"}},{"base_weights":[1.498213E2,1.3000294E2,4.240214E2,-2.002823E0,1.5962022E2,6.039522E2,2.002809E2,9.292072E1,-8.502963E1,5.2815607E2,1.4171866E2,4.295895E2,1.7394154E3,-7.70793E1,3.9822867E2,-4.4669773E1,3.8587122E2,-1.8011778E2,3.5942886E1,3.1469873E2,1.2763542E3,-6.268721E1,1.6593243E2,9.46875E2,3.0465292E2,2.337793E2,-1.3759462E2,5.0111285E2,1.333914E2,8.462109E1,-9.21708E1,9.1758594E2,2.6205774E2,-2.8260352E2,2.2941856E1,3.9486133E2,-5.268157E0,7.124478E2,9.33457E1,1.332465E2,-3.5373837E2,7.524007E2,1.48147E2,5.950456E1,3.8240207E2,-1.6626904E2,4.590039E1,1.8417578E2,5.6535547E2,2.1520833E2,7.1106772E0,-1.9249902E2,1.3158301E2,-2.067207E2,1.3821045E1,5.7304297E2,1.4621169E2,2.5699219E1,-3.2787054E2,1.5076042E2,-2.1171992E2,-5.095133E1,3.77181E2,8.7687463E2,2.0092058E2,-1.9634734E2,2.7610266E2,3.3028824E1,6.8785974E2,-4.4952292E2,1.8967285E2,5.0831918E2,1.8406895E3,1.5534142E2,-5.0595703E2,3.902643E2,-2.034414E2,4.636494E2,4.305957E1,-2.0234921E2,-7.960156E1,6.684375E1,2.5596875E2,1.0761719E0,9.589844E0],"categories":[],"categories_nodes":[],"categories_segments":[],"categories_sizes":[],"default_left":[1,1,1,1,1,1,1,1,1,1,1,1,0,1,1,1,1,1,1,1,0,1,1,0,1,0,1,1,1,1,1,0,1,1,1,0,1,1,1,1,1,1,1,1,1,1,0,0,0,1,1,0,0,0,0,0,0,0,0,0,0,0,0,0,0,0,0,0,0,0,0,0,0,0,0,0,0,0,0,0,0,0,0,0,0],"id":16,"left_children":[1,3,5,7,9,11,13,15,17,19,21,23,-1,25,27,29,31,33,35,37,-1,39,41,-1,43,-1,45,47,49,51,53,-1,55,57,59,-1,61,63,65,67,69,71,73,75,77,79,-1,-1,-1,81,83,-1,-1,-1,-1,-1,-1,-1,-1,-1,-1,-1,-1,-1,-1,-1,-1,-1,-1,-1,-1,-1,-1,-1,-1,-1,-1,-1,-1,-1,-1,-1,-1,-1,-1],"loss_changes":[3.689038E6,2.518134E6,1.730899E6,9.457637E5,3.395363E6,4.202326E6,1.2385574E6,2.2744402E6,7.426694E5,3.4313345E6,2.49997E6,1.1979725E6,0E0,2.2028384E5,2.8737412E5,2.473161E5,9.445415E5,7.5566925E5,4.310309E5,1.6943558E6,0E0,3.126578E6,4.582299E6,0E0,3.5844675E5,0E0,5.498633E4,7.9123E4,5.0129227E4,1.684846E5,3.549564E5,0E0,4.92637E5,3.433685E5,4.2184266E5,0E0,4.909481E5,4.1257925E5,7.954198E5,1.8114886E6,1.2303715E6,2.5175475E6,2.139778E6,6.012276E5,3.935955E5,8.908516E3,0E0,0E0,0E0,1.0322969E3,3.456131E1,0E0,0E0,0E0,0E0,0E0,0E0,0E0,0E0,0E0,0E0,0E0,0E0,0E0,0E0,0E0,0E0,0E0,0E0,0E0,0E0,0E0,0E0,0E0,0E0,0E0,0E0,0E0,0E0,0E0,0E0,0E0,0E0,0E0,0E0],"parents":[2147483647,0,0,1,1,2,2,3,3,4,4,5,5,6,6,7,7,8,8,9,9,10,10,11,11,13,13,14,14,15,15,16,16,17,17,18,18,19,19,21,21,22,22,24,24,26,26,27,27,28,28,29,29,30,30,32,32,33,33,34,34,36,36,37,37,38,38,39,39,40,40,41,41,42,42,43,43,44,44,45,45,49,49,50,50],"right_children":[2,4,6,8,10,12,14,16,18,20,22,24,-1,26,28,30,32,34,36,38,-1,40,42,-1,44,-1,46,48,50,52,54,-1,56,58,60,-1,62,64,66,68,70,72,74,76,78,80,-1,-1,-1,82,84,-1,-1,-1,-1,-1,-1,-1,-1,-1,-1,-1,-1,-1,-1,-1,-1,-1,-1,-1,-1,-1,-1,-1,-1,-1,-1,-1,-1,-1,-1,-1,-1,-1,-1],"split_conditions":[5.8122812E4,2.1843158E4,6.0345656E4,1.9309746E4,2.2430877E4,6.0193156E4,5.8361797E4,1.9281988E4,2.024702E4,2.6097469E4,2.9442477E4,5.4795438E4,5.2182465E2,5.313879E4,6.2771016E4,1.7946305E4,1.9326098E4,2.0780047E4,1.9045074E4,2.1008293E4,3.8290628E2,2.9183184E4,2.9837957E4,2.840625E2,5.6127984E4,7.013379E1,6.101442E4,6.0436996E4,6.0012574E4,1.701121E4,1.836902E4,2.752758E2,1.8122738E4,1.8603873E4,2.0648205E4,1.18458405E2,2.9436168E4,1.9154242E4,2.2576436E4,3.0753672E4,3.6763664E4,3.5501434E4,5.9227133E4,5.3919645E4,6.0822137E4,5.843193E4,1.3770118E1,5.5252735E1,1.6960664E2,6.0032742E4,5.926844E4,-5.774971E1,3.9474903E1,-6.2016212E1,4.1463137E0,1.719129E2,4.3863506E1,7.709766E0,-9.836117E1,4.5228127E1,-6.351598E1,-1.5285399E1,1.13154305E2,2.630624E2,6.0276176E1,-5.89042E1,8.28308E1,9.908648E0,2.0635793E2,-1.3485689E2,5.690186E1,1.5249576E2,5.5220685E2,4.6602425E1,-1.5178711E2,1.170793E2,-6.1032425E1,1.3909483E2,1.2917871E1,-6.0704765E1,-2.388047E1,2.0053125E1,7.679063E1,3.2285157E-1,2.8769531E0],"split_indices":[8,14,10,17,5,10,17,20,9,17,5,3,0,13,13,16,20,15,4,10,0,11,3,0,10,0,0,11,1,20,10,0,2,4,13,0,6,6,10,15,19,0,10,11,14,0,0,0,0,0,0,0,0,0,0,0,0,0,0,0,0,0,0,0,0,0,0,0,0,0,0,0,0,0,0,0,0,0,0,0,0,0,0,0,0],"split_type":[0,0,0,0,0,0,0,0,0,0,0,0,0,0,0,0,0,0,0,0,0,0,0,0,0,0,0,0,0,0,0,0,0,0,0,0,0,0,0,0,0,0,0,0,0,0,0,0,0,0,0,0,0,0,0,0,0,0,0,0,0,0,0,0,0,0,0,0,0,0,0,0,0,0,0,0,0,0,0,0,0,0,0,0,0],"sum_hessian":[6.88E2,6.43E2,4.5E1,1.18E2,5.25E2,2.4E1,2.1E1,5.5E1,6.3E1,2.3E1,5.02E2,2.2E1,2E0,9E0,1.2E1,3.8E1,1.7E1,3.5E1,2.8E1,1.9E1,4E0,5.3E1,4.49E2,3E0,1.9E1,1E0,8E0,8E0,4E0,1E1,2.8E1,2E0,1.5E1,2.3E1,1.2E1,2E0,2.6E1,6E0,1.3E1,3.2E1,2.1E1,1.2E1,4.37E2,5E0,1.4E1,7E0,1E0,2E0,6E0,2E0,2E0,1E0,9E0,1.3E1,1.5E1,3E0,1.2E1,3E0,2E1,8E0,4E0,2.4E1,2E0,4E0,2E0,5E0,8E0,2.8E1,4E0,1.8E1,3E0,1.1E1,1E0,4.33E2,4E0,2E0,3E0,1.1E1,3E0,4E0,3E0,1E0,1E0,1E0,1E0],"tree_param":{"num_deleted":"0","num_feature":"21","num_nodes":"85","size_leaf_vector":"0"}},{"base_weights":[1.0970632E2,8.70853E1,2.910169E2,9.899922E1,-1.975668E2,1.0255396E3,2.0163722E2,7.622603E1,2.849754E2,-7.19258E2,1.9817787E2,-8.467383E1,1.1962377E3,-7.727679E0,4.0524106E2,8.963379E1,-7.054245E2,7.8544116E2,1.2913617E2,1.1858887E2,-1.0482742E3,3.0258984E2,-6.317949E2,6.377344E2,-8.8168945E1,1.2932275E3,2.8157898E2,7.786658E1,8.3153125E2,-9.5866406E2,1.20609375E2,1.1428335E3,3.2986865E2,-7.331445E1,3.699832E2,-5.6658203E1,1.9589062E2,-1.3914448E3,-5.640828E2,4.6928476E2,-9.131797E1,7.368281E2,1.7022656E2,-4.0141458E2,1.7776736E2,1.6775343E2,6.020864E2,9.274946E1,-8.7134863E2,1.00410657E3,-1.8824805E2,-1.0317545E3,-2.6006055E2,1.6268945E2,1.822461E1,3.0724023E2,1.2183125E3,-9.388379E1,6.0289685E2,6.7860315E2,-2.2690918E2,4.7560342E2,-4.926862E2,2.4416992E2,4.9666016E1,5.4174023E2,1.1964193E2,8.629883E1,-1.5729688E2,-7.7929456E2,-1.9315874E2,5.382585E2,-2.28756E0,2.8449545E2,5.5706474E1,1.01166925E3,2.9694727E2],"categories":[],"categories_nodes":[],"categories_segments":[],"categories_sizes":[],"default_left":[1,1,1,1,1,1,1,1,1,1,1,0,0,1,1,1,1,1,1,1,1,1,0,1,1,0,1,1,1,1,1,1,1,1,1,0,1,0,0,1,1,0,0,1,1,1,1,0,0,0,0,0,0,0,0,0,0,0,0,0,0,0,0,0,0,0,0,0,0,0,0,0,0,0,0,0,0],"id":17,"left_children":[1,3,5,7,9,11,13,15,17,19,21,-1,-1,23,25,27,29,31,33,35,37,39,-1,41,43,-1,45,47,49,51,53,55,57,59,61,-1,63,-1,-1,65,67,-1,-1,69,71,73,75,-1,-1,-1,-1,-1,-1,-1,-1,-1,-1,-1,-1,-1,-1,-1,-1,-1,-1,-1,-1,-1,-1,-1,-1,-1,-1,-1,-1,-1,-1],"loss_changes":[2.800543E6,2.1018325E6,4.78272E6,2.4770875E6,5.3039535E6,1.617381E6,2.944429E6,5.586287E6,4.8900715E6,3.1566305E6,1.4910612E6,0E0,0E0,1.8734908E6,3.4792135E6,4.4661555E6,1.998284E6,2.065288E6,2.4651068E6,6.5286434E4,5.44392E5,9.621281E5,0E0,5.9880625E4,2.7370668E6,0E0,1.06642E6,7.313871E6,1.596931E6,8.911E4,9.960125E3,1.30244E5,9.8217325E5,3.3877172E6,2.329976E6,0E0,9.051922E3,0E0,0E0,1.8852025E5,7.216934E4,0E0,0E0,1.029908E6,1.1695788E6,3.111665E5,6.994255E5,0E0,0E0,0E0,0E0,0E0,0E0,0E0,0E0,0E0,0E0,0E0,0E0,0E0,0E0,0E0,0E0,0E0,0E0,0E0,0E0,0E0,0E0,0E0,0E0,0E0,0E0,0E0,0E0,0E0,0E0],"parents":[2147483647,0,0,1,1,2,2,3,3,4,4,5,5,6,6,7,7,8,8,9,9,10,10,13,13,14,14,15,15,16,16,17,17,18,18,19,19,20,20,21,21,23,23,24,24,26,26,27,27,28,28,29,29,30,30,31,31,32,32,33,33,34,34,36,36,39,39,40,40,43,43,44,44,45,45,46,46],"right_children":[2,4,6,8,10,12,14,16,18,20,22,-1,-1,24,26,28,30,32,34,36,38,40,-1,42,44,-1,46,48,50,52,54,56,58,60,62,-1,64,-1,-1,66,68,-1,-1,70,72,74,76,-1,-1,-1,-1,-1,-1,-1,-1,-1,-1,-1,-1,-1,-1,-1,-1,-1,-1,-1,-1,-1,-1,-1,-1,-1,-1,-1,-1,-1,-1],"split_conditions":[5.5652688E4,5.369176E4,5.2899297E4,4.8293258E4,5.3862137E4,4.366119E4,5.856717E4,4.7497688E4,4.5589016E4,4.794957E4,6.1881883E4,-2.540215E1,3.588713E2,5.4481465E4,5.2773812E4,5.0725887E4,4.8365766E4,5.3904305E4,5.3241156E4,5.4340055E4,5.3850812E4,6.0172664E4,-1.8953848E2,5.3380594E4,5.5763945E4,3.879683E2,6.1308363E4,4.8900227E4,5.342989E4,5.187279E4,4.5353457E4,4.0968883E4,5.340818E4,4.5115566E4,6.0407297E4,-1.6997461E1,5.4617605E4,-4.1743347E2,-1.6922485E2,5.5384906E4,5.4424473E4,2.2104845E2,5.106797E1,5.3681914E4,5.56563E4,5.634635E4,6.0822137E4,2.7824839E1,-2.614046E2,3.01232E2,-5.6474415E1,-3.0952637E2,-7.8018166E1,4.880684E1,5.467383E0,9.217207E1,3.6549377E2,-2.8165138E1,1.8086906E2,2.0358095E2,-6.8072754E1,1.4268103E2,-1.4780586E2,7.325098E1,1.4899805E1,1.6252208E2,3.5892582E1,2.588965E1,-4.7189064E1,-2.3378838E2,-5.7947624E1,1.6147755E2,-6.8626803E-1,8.534864E1,1.6711943E1,3.035008E2,8.908418E1],"split_indices":[0,0,3,9,6,8,5,9,1,5,18,0,0,1,19,4,10,18,4,0,1,9,0,1,11,0,20,6,0,0,0,0,10,13,19,0,0,0,0,0,1,0,0,5,9,20,16,0,0,0,0,0,0,0,0,0,0,0,0,0,0,0,0,0,0,0,0,0,0,0,0,0,0,0,0,0,0],"split_type":[0,0,0,0,0,0,0,0,0,0,0,0,0,0,0,0,0,0,0,0,0,0,0,0,0,0,0,0,0,0,0,0,0,0,0,0,0,0,0,0,0,0,0,0,0,0,0,0,0,0,0,0,0,0,0,0,0,0,0,0,0,0,0,0,0,0,0,0,0,0,0,0,0,0,0,0,0],"sum_hessian":[6.88E2,6.13E2,7.5E1,5.89E2,2.4E1,7E0,6.8E1,5.26E2,6.3E1,1E1,1.4E1,1E0,6E0,3.4E1,3.4E1,5.18E2,8E0,1.4E1,4.9E1,3E0,7E0,1.3E1,1E0,3E0,3.1E1,3E0,3.1E1,5.11E2,7E0,6E0,2E0,7E0,7E0,2.7E1,2.2E1,1E0,2E0,3E0,4E0,9E0,4E0,2E0,1E0,1.4E1,1.7E1,2.4E1,7E0,5.04E2,7E0,6E0,1E0,5E0,1E0,1E0,1E0,1E0,6E0,3E0,4E0,4E0,2.3E1,2E1,2E0,1E0,1E0,7E0,2E0,1E0,3E0,4E0,1E1,5E0,1.2E1,1.1E1,1.3E1,2E0,5E0],"tree_param":{"num_deleted":"0","num_feature":"21","num_nodes":"77","size_leaf_vector":"0"}},{"base_weights":[7.8606384E1,3.372559E1,1.4898357E2,6.1309967E1,-3.1617123E2,6.240464E2,1.01838715E2,4.144946E1,4.4902158E2,-6.06412E2,2.666676E2,2.6762555E2,1.0209414E3,-2.7391983E2,1.401374E2,6.960675E1,-1.5123564E2,9.312634E2,1.36399145E1,4.139502E2,-7.994696E2,-1.3071541E2,7.696703E2,1.0938008E3,3.877962E1,1.2168641E3,9.2859375E1,-3.3983417E2,5.8809766E2,1.0162333E3,1.1123045E2,4.553985E1,5.6716235E2,-5.5311285E2,1.3836272E1,3.6704883E2,1.1521959E3,-3.787982E2,1.4293707E2,8.380488E2,-6.765625E0,-2.6017188E2,-9.868786E2,-4.1527213E2,6.616172E1,1.3703906E2,8.9356836E2,1.5105391E3,1.3016211E2,2.304253E2,-2.7560938E2,-6.3777344E1,1.3849165E3,-5.404297E0,1.4469336E2,-1.6785417E2,-6.198174E2,1.1373685E3,1.4471094E2,-4.3246484E2,1.3411096E2,6.8654526E1,-1.8319194E2,7.510156E1,7.392662E2,-7.446686E2,-5.9378906E1,4.6251855E2,-1.1485282E2,1.998789E2,8.115299E1,6.182422E1,-7.197266E1,-4.864896E2,-2.5390625E1,2.394336E1,-1.073109E3,1.6966406E2,-5.939453E1,-7.71224E1,3.4579492E2,-3.1641016E2,-5.6203125E1,-5.766166E1,-5.894036E2,-7.559733E2,-1.4089973E2,1.3221152E3,5.1191666E2,3.1626303E1,-1.02048535E3,4.9344122E2,9.558088E1],"categories":[],"categories_nodes":[],"categories_segments":[],"categories_sizes":[],"default_left":[1,1,1,1,1,1,1,1,1,1,1,1,1,1,1,1,1,1,1,1,1,1,1,1,1,1,1,1,0,1,1,1,1,1,1,0,0,0,1,0,1,1,1,0,1,0,0,0,0,1,1,0,0,0,0,1,1,1,0,1,1,0,0,0,0,0,0,0,0,0,0,0,0,0,0,0,0,0,0,0,0,0,0,0,0,0,0,0,0,0,0,0,0],"id":18,"left_children":[1,3,5,7,9,11,13,15,17,19,21,23,25,27,29,31,33,35,37,39,41,43,45,47,49,51,53,55,-1,57,59,61,63,65,67,-1,-1,-1,69,-1,71,73,75,-1,77,-1,-1,-1,-1,79,81,-1,-1,-1,-1,83,85,87,-1,89,91,-1,-1,-1,-1,-1,-1,-1,-1,-1,-1,-1,-1,-1,-1,-1,-1,-1,-1,-1,-1,-1,-1,-1,-1,-1,-1,-1,-1,-1,-1,-1,-1],"loss_changes":[2.17124E6,4.0923958E6,5.938782E6,2.9998475E6,5.405782E6,3.12185E6,3.5641958E6,2.0396605E6,3.9765242E6,4.4677025E6,2.2993398E6,2.6045185E6,1.887159E6,1.5066998E6,5.5344975E6,3.8898732E6,3.1919075E6,6.98968E5,6.122967E5,7.1936994E5,1.562488E6,4.1963406E5,2.6945525E5,1.00814075E6,7.865229E5,2.02526E6,1.6062158E4,9.5529425E5,0E0,5.744145E5,2.7574842E6,1.667427E6,1.214763E6,1.2798685E6,2.0740395E6,0E0,0E0,0E0,1.5442109E4,0E0,1.7867275E4,3.0645866E5,1.158821E6,0E0,7.5053945E4,0E0,0E0,0E0,0E0,3.1052178E5,2.69765E4,0E0,0E0,0E0,0E0,6.627879E5,4.151435E5,1.64885E4,0E0,2.4883302E6,2.8464465E6,0E0,0E0,0E0,0E0,0E0,0E0,0E0,0E0,0E0,0E0,0E0,0E0,0E0,0E0,0E0,0E0,0E0,0E0,0E0,0E0,0E0,0E0,0E0,0E0,0E0,0E0,0E0,0E0,0E0,0E0,0E0,0E0],"parents":[2147483647,0,0,1,1,2,2,3,3,4,4,5,5,6,6,7,7,8,8,9,9,10,10,11,11,12,12,13,13,14,14,15,15,16,16,17,17,18,18,19,19,20,20,21,21,22,22,23,23,24,24,25,25,26,26,27,27,29,29,30,30,31,31,32,32,33,33,34,34,38,38,40,40,41,41,42,42,44,44,49,49,50,50,55,55,56,56,57,57,59,59,60,60],"right_children":[2,4,6,8,10,12,14,16,18,20,22,24,26,28,30,32,34,36,38,40,42,44,46,48,50,52,54,56,-1,58,60,62,64,66,68,-1,-1,-1,70,-1,72,74,76,-1,78,-1,-1,-1,-1,80,82,-1,-1,-1,-1,84,86,88,-1,90,92,-1,-1,-1,-1,-1,-1,-1,-1,-1,-1,-1,-1,-1,-1,-1,-1,-1,-1,-1,-1,-1,-1,-1,-1,-1,-1,-1,-1,-1,-1,-1,-1],"split_conditions":[4.2407438E4,4.098293E4,4.336736E4,4.2738438E4,4.516983E4,4.193689E4,4.4804363E4,3.888718E4,3.745208E4,3.4622094E4,4.1225562E4,4.0663406E4,4.7786062E4,5.4349008E4,4.280039E4,3.8524984E4,4.0071125E4,3.779727E4,3.768561E4,4.197528E4,3.966668E4,4.1740086E4,4.160225E4,4.379915E4,4.1325336E4,3.9380695E4,5.253627E4,4.695604E4,1.764293E2,4.138234E4,4.0748855E4,3.7245938E4,3.7254055E4,3.9468156E4,3.521715E4,1.10114655E2,3.4565878E2,-1.1363946E2,4.598007E4,2.5141466E2,5.166947E4,3.895469E4,3.7070023E4,-1.2458164E2,3.9153184E4,4.111172E1,2.6807053E2,4.5316174E2,3.9048634E1,3.9927242E4,4.605422E4,-1.9133204E1,4.1547498E2,-1.6212891E0,4.340801E1,4.7807395E4,4.568503E4,4.2031574E4,4.3413284E1,4.640863E4,4.4354258E4,2.059636E1,-5.4957584E1,2.253047E1,2.2177986E2,-2.2340059E2,-1.7813673E1,1.3875557E2,-3.445585E1,5.9963673E1,2.43459E1,1.8547266E1,-2.1591797E1,-1.4594688E2,-7.617188E0,7.183008E0,-3.219327E2,5.089922E1,-1.781836E1,-2.313672E1,1.0373848E2,-9.492305E1,-1.6860939E1,-1.7298498E1,-1.7682109E2,-2.26792E2,-4.226992E1,3.9663458E2,1.53575E2,9.487891E0,-3.0614563E2,1.4803238E2,2.8674265E1],"split_indices":[8,9,9,14,19,12,9,3,8,20,4,9,4,3,5,2,3,12,8,0,13,9,9,0,14,14,0,13,0,1,0,0,11,8,8,0,0,0,20,0,0,0,2,0,0,0,0,0,0,11,3,0,0,0,0,7,6,5,0,7,1,0,0,0,0,0,0,0,0,0,0,0,0,0,0,0,0,0,0,0,0,0,0,0,0,0,0,0,0,0,0,0,0],"split_type":[0,0,0,0,0,0,0,0,0,0,0,0,0,0,0,0,0,0,0,0,0,0,0,0,0,0,0,0,0,0,0,0,0,0,0,0,0,0,0,0,0,0,0,0,0,0,0,0,0,0,0,0,0,0,0,0,0,0,0,0,0,0,0,0,0,0,0,0,0,0,0,0,0,0,0,0,0,0,0,0,0,0,0,0,0,0,0,0,0,0,0,0,0],"sum_hessian":[6.88E2,4.21E2,2.67E2,3.91E2,3E1,2.3E1,2.44E2,3.73E2,1.8E1,2E1,1E1,1.3E1,1E1,2.2E1,2.22E2,3.26E2,4.7E1,8E0,1E1,3E0,1.7E1,6E0,4E0,2E0,1.1E1,8E0,2E0,2.1E1,1E0,6E0,2.16E2,3.12E2,1.4E1,1.3E1,3.4E1,3E0,5E0,2E0,8E0,1E0,2E0,5E0,1.2E1,2E0,4E0,1E0,3E0,1E0,1E0,7E0,4E0,1E0,7E0,1E0,1E0,1.4E1,7E0,5E0,1E0,8E0,2.08E2,2.84E2,2.8E1,4E0,1E1,9E0,4E0,7E0,2.7E1,3E0,5E0,1E0,1E0,2E0,3E0,1E0,1.1E1,2E0,2E0,2E0,5E0,3E0,1E0,1.2E1,2E0,5E0,2E0,3E0,2E0,5E0,3E0,1.9E1,1.89E2],"tree_param":{"num_deleted":"0","num_feature":"21","num_nodes":"93","size_leaf_vector":"0"}},{"base_weights":[5.7322083E1,4.012264E1,1.935031E2,4.9548916E1,-1.9327849E2,8.388737E2,1.3703467E2,-4.702928E1,7.3030014E1,-1.417998E3,-7.8377716E1,1.0442141E3,-9.391406E1,-3.3515366E2,2.0129498E2,1.7864773E1,-1.0383805E2,3.5608984E2,5.717741E1,-2.7262527E2,2.0140665E2,2.8414062E2,1.1631973E3,-2.3221874E1,-5.800547E2,4.1307675E2,1.220953E2,-8.039984E1,2.4224449E2,-1.9221347E2,-3.4672092E1,5.011704E1,6.3467114E2,-1.08536736E2,7.85773E1,-5.9237305E1,-4.7755078E2,4.6896796E2,-5.5128906E1,-1.2825488E2,1.9845508E2,-6.978008E2,-5.4535156E1,1.9701503E2,8.9222186E2,-6.0965015E1,2.7933728E2,-2.2915234E2,-4.640992E1,7.0178906E2,1.3418594E2,-3.522447E2,-1.8452707E1,2.926211E2,-6.2531136E1,2.0119252E2,-1.0811803E2,1.1119883E2,8.5497003E2,2.270101E1,-3.8006744E2,6.879632E2,6.7551216E1,4.0317524E1,-3.7806055E2,-6.109974E2,1.6156445E2,1.3890234E2,5.167588E2,-1.4341309E2,8.095963E1,4.3665234E2,-1.5533723E2,2.207832E2,1.00488574E3,4.551185E2,-1.3178813E2,1.9995085E2,8.213164E2],"categories":[],"categories_nodes":[],"categories_segments":[],"categories_sizes":[],"default_left":[1,1,1,1,1,1,1,1,1,0,1,1,0,1,1,1,1,1,1,1,1,0,0,1,1,1,1,1,1,1,1,1,1,1,1,1,1,1,1,0,0,0,0,1,1,1,1,0,0,0,0,0,0,0,0,0,0,0,0,0,0,0,0,0,0,0,0,0,0,0,0,0,0,0,0,0,0,0,0],"id":19,"left_children":[1,3,5,7,9,11,13,15,17,-1,19,21,-1,23,25,27,29,31,33,35,37,-1,-1,39,41,43,45,47,49,51,53,55,57,59,61,63,65,67,69,-1,-1,-1,-1,71,73,75,77,-1,-1,-1,-1,-1,-1,-1,-1,-1,-1,-1,-1,-1,-1,-1,-1,-1,-1,-1,-1,-1,-1,-1,-1,-1,-1,-1,-1,-1,-1,-1,-1],"loss_changes":[1.606038E6,1.3582405E6,2.691161E6,1.3414144E6,3.2661698E6,1.2473E6,2.2521588E6,4.29495E5,2.1110768E6,0E0,1.3048994E6,1.216685E5,0E0,6.740618E5,1.02304025E6,1.2321485E6,3.7231488E5,2.0991498E6,1.607894E6,5.839122E5,7.122435E5,0E0,0E0,1.4186981E5,2.7133462E5,1.5841422E6,1.3986985E6,1.8655239E5,7.5001106E5,7.442932E5,3.4654866E5,3.3252328E5,1.4040935E6,1.8616518E6,2.641184E6,2.6916562E5,6.9572975E5,7.091625E3,8.369746E4,0E0,0E0,0E0,0E0,1.1655061E6,1.5637275E5,9.00644E5,9.54448E5,0E0,0E0,0E0,0E0,0E0,0E0,0E0,0E0,0E0,0E0,0E0,0E0,0E0,0E0,0E0,0E0,0E0,0E0,0E0,0E0,0E0,0E0,0E0,0E0,0E0,0E0,0E0,0E0,0E0,0E0,0E0,0E0],"parents":[2147483647,0,0,1,1,2,2,3,3,4,4,5,5,6,6,7,7,8,8,10,10,11,11,13,13,14,14,15,15,16,16,17,17,18,18,19,19,20,20,23,23,24,24,25,25,26,26,27,27,28,28,29,29,30,30,31,31,32,32,33,33,34,34,35,35,36,36,37,37,38,38,43,43,44,44,45,45,46,46],"right_children":[2,4,6,8,10,12,14,16,18,-1,20,22,-1,24,26,28,30,32,34,36,38,-1,-1,40,42,44,46,48,50,52,54,56,58,60,62,64,66,68,70,-1,-1,-1,-1,72,74,76,78,-1,-1,-1,-1,-1,-1,-1,-1,-1,-1,-1,-1,-1,-1,-1,-1,-1,-1,-1,-1,-1,-1,-1,-1,-1,-1,-1,-1,-1,-1,-1,-1],"split_conditions":[5.561839E4,5.369176E4,5.3080242E4,2.1426451E4,5.3715305E4,5.8406703E4,4.778608E4,1.9309746E4,2.2430877E4,-4.2539944E2,5.7670816E4,4.40826E4,-2.817422E1,5.525189E4,5.3622547E4,1.9281988E4,1.9807174E4,2.272896E4,2.9364047E4,5.569939E4,5.9016875E4,8.524219E1,3.489592E2,5.7013742E4,6.0888664E4,5.352023E4,5.6969605E4,1.51759E4,1.9326098E4,2.0424506E4,1.8848305E4,2.1008293E4,1.8832738E4,2.933963E4,2.8964467E4,5.5647594E4,5.6947625E4,5.3989027E4,6.1588867E4,-3.8476467E1,5.9536526E1,-2.0934024E2,-1.6360548E1,5.375975E4,5.575592E4,5.564193E4,6.2864043E4,-6.8745705E1,-1.39229765E1,2.1053673E2,4.0255783E1,-1.0567341E2,-5.5358124E0,8.778633E1,-1.8759342E1,6.0357758E1,-3.243541E1,3.335965E1,2.5649103E2,6.810303E0,-1.1402024E2,2.0638896E2,2.0265366E1,1.2095258E1,-1.1341817E2,-1.8329922E2,4.8469337E1,4.1670704E1,1.5502765E2,-4.3023926E1,2.4287891E1,1.3099571E2,-4.6601173E1,6.623496E1,3.0146573E2,1.3653555E2,-3.953644E1,5.9985256E1,2.4639493E2],"split_indices":[0,0,2,13,0,0,12,17,5,0,9,2,0,3,12,20,8,13,5,3,6,0,0,0,3,10,17,2,20,16,1,9,1,11,3,12,1,0,7,0,0,0,0,8,2,2,1,0,0,0,0,0,0,0,0,0,0,0,0,0,0,0,0,0,0,0,0,0,0,0,0,0,0,0,0,0,0,0,0],"split_type":[0,0,0,0,0,0,0,0,0,0,0,0,0,0,0,0,0,0,0,0,0,0,0,0,0,0,0,0,0,0,0,0,0,0,0,0,0,0,0,0,0,0,0,0,0,0,0,0,0,0,0,0,0,0,0,0,0,0,0,0,0,0,0,0,0,0,0,0,0,0,0,0,0,0,0,0,0,0,0],"sum_hessian":[6.88E2,6.12E2,7.6E1,5.89E2,2.3E1,5E0,7.1E1,1.15E2,4.74E2,1E0,2.2E1,4E0,1E0,8E0,6.3E1,5.4E1,6.1E1,2.4E1,4.5E2,1.3E1,9E0,1E0,3E0,4E0,4E0,1.6E1,4.7E1,3.8E1,1.6E1,2.6E1,3.5E1,1.2E1,1.2E1,5.1E1,3.99E2,7E0,6E0,4E0,5E0,3E0,1E0,3E0,1E0,1.2E1,4E0,2.2E1,2.5E1,6E0,3.2E1,2E0,1.4E1,1.3E1,1.3E1,2E0,3.3E1,6E0,6E0,4E0,8E0,3.5E1,1.6E1,6E0,3.93E2,6E0,1E0,5E0,1E0,1E0,3E0,3E0,2E0,7E0,5E0,1E0,3E0,2E0,2E1,2.3E1,2E0],"tree_param":{"num_deleted":"0","num_feature":"21","num_nodes":"79","size_leaf_vector":"0"}},{"base_weights":[4.1774754E1,3.127973E1,1.9127509E2,3.8372383E1,-1.8130069E2,3.1837582E2,4.3925426E1,3.3079575E1,4.424453E2,-1.0115618E3,-4.066468E1,6.5277893E2,2.1885625E2,2.8058282E2,-2.4253038E1,3.756744E1,-3.1381592E2,-1.2642838E2,6.531413E2,-1.2052988E3,-3.1204395E2,9.3215744E1,-2.834905E2,8.683464E2,2.1961848E2,3.933538E1,5.466328E2,-7.844801E1,9.7211586E1,3.4305275E1,5.240244E2,-6.047044E2,3.725664E2,7.087031E2,1.8766602E2,-2.0563985E2,2.4888933E2,-4.7881836E2,-1.729004E1,-6.593555E1,2.4201016E2,7.167803E2,2.3982715E2,-1.371167E2,1.28515625E1,1.7134082E2,-3.403125E1,4.0904232E1,-2.124126E2,1.6066406E2,5.9158984E2,-7.371426E2,-2.2655208E2,-8.508203E1,-2.5765103E2,8.275586E1,3.1816342E2,-4.9773438E1,4.008008E1,1.3863281E2,-1.3440674E2,-1.6877109E2,-6.326953E1,6.1191406E1,-5.5885418E1,1.3085938E0,-5.235547E1],"categories":[],"categories_nodes":[],"categories_segments":[],"categories_sizes":[],"default_left":[1,1,1,1,1,1,1,1,1,1,1,1,1,0,1,1,1,0,1,0,0,1,1,0,0,1,1,1,1,1,1,1,0,0,0,1,1,0,1,1,0,0,0,1,1,0,1,0,0,0,0,0,0,0,0,0,0,0,0,0,0,0,0,0,0,0,0],"id":20,"left_children":[1,3,5,7,9,11,13,15,17,19,21,23,25,-1,27,29,31,-1,33,-1,-1,35,37,-1,-1,39,41,43,45,47,49,51,-1,-1,-1,53,55,-1,57,59,-1,-1,-1,61,63,-1,65,-1,-1,-1,-1,-1,-1,-1,-1,-1,-1,-1,-1,-1,-1,-1,-1,-1,-1,-1,-1],"loss_changes":[1.0750644E6,9.7946175E5,8.287864E5,1.3220395E6,2.410922E6,6.55847E5,3.617736E5,9.7390375E5,1.0414509E6,3.046125E4,6.441087E5,2.761715E5,1.1553525E6,0E0,1.2611597E5,9.516203E5,1.8225785E6,0E0,2.217625E4,0E0,0E0,6.559925E5,3.5569575E5,0E0,0E0,3.1465772E5,1.93512E5,7.139569E4,6.420452E4,9.985613E5,3.155125E3,1.334895E5,0E0,0E0,0E0,9.430328E3,7.724881E4,0E0,9.449229E3,1.587036E5,0E0,0E0,0E0,8.0226406E3,2.3356115E4,0E0,2.0112373E3,0E0,0E0,0E0,0E0,0E0,0E0,0E0,0E0,0E0,0E0,0E0,0E0,0E0,0E0,0E0,0E0,0E0,0E0,0E0,0E0],"parents":[2147483647,0,0,1,1,2,2,3,3,4,4,5,5,6,6,7,7,8,8,9,9,10,10,11,11,12,12,14,14,15,15,16,16,18,18,21,21,22,22,25,25,26,26,27,27,28,28,29,29,30,30,31,31,35,35,36,36,38,38,39,39,43,43,44,44,46,46],"right_children":[2,4,6,8,10,12,14,16,18,20,22,24,26,-1,28,30,32,-1,34,-1,-1,36,38,-1,-1,40,42,44,46,48,50,52,-1,-1,-1,54,56,-1,58,60,-1,-1,-1,62,64,-1,66,-1,-1,-1,-1,-1,-1,-1,-1,-1,-1,-1,-1,-1,-1,-1,-1,-1,-1,-1,-1],"split_conditions":[5.8207555E4,5.696614E4,6.027625E4,5.634999E4,5.4065414E4,5.5700133E4,5.976085E4,5.6571977E4,5.4424473E4,5.3791695E4,6.0172664E4,5.5911E4,6.068243E4,8.417485E1,6.08815E4,5.8416113E4,5.577946E4,-3.7928516E1,5.5518477E4,-3.6158966E2,-9.361319E1,5.561839E4,5.8115848E4,2.6050394E2,6.588555E1,6.029194E4,6.0056977E4,5.9884758E4,6.1052773E4,5.5800156E4,5.3478695E4,5.679326E4,1.1176993E2,2.1261095E2,5.629981E1,5.6431445E4,5.715768E4,-1.4364551E2,6.1057977E4,5.3389297E4,7.260305E1,2.1503409E2,7.194815E1,6.0418418E4,6.0043543E4,5.140225E1,6.0504195E4,1.227127E1,-6.372378E1,4.8199223E1,1.7747696E2,-2.2114278E2,-6.796563E1,-2.552461E1,-7.729531E1,2.482676E1,9.544903E1,-1.4932032E1,1.2024024E1,4.1589844E1,-4.032202E1,-5.063133E1,-1.898086E1,1.8357422E1,-1.6765627E1,3.9257815E-1,-1.5706641E1],"split_indices":[8,10,7,10,7,12,9,8,8,0,15,1,17,0,3,7,10,0,0,0,0,12,1,0,0,12,5,18,2,3,0,0,0,0,0,5,15,0,0,0,0,0,0,4,5,0,0,0,0,0,0,0,0,0,0,0,0,0,0,0,0,0,0,0,0,0,0],"split_type":[0,0,0,0,0,0,0,0,0,0,0,0,0,0,0,0,0,0,0,0,0,0,0,0,0,0,0,0,0,0,0,0,0,0,0,0,0,0,0,0,0,0,0,0,0,0,0,0,0,0,0,0,0,0,0,0,0,0,0,0,0,0,0,0,0,0,0],"sum_hessian":[6.88E2,6.44E2,4.4E1,6.24E2,2E1,2.3E1,2.1E1,6.17E2,7E0,2E0,1.8E1,4E0,1.9E1,4E0,1.7E1,6.1E2,7E0,2E0,5E0,1E0,1E0,1.2E1,6E0,2E0,2E0,1.3E1,6E0,1.2E1,5E0,6.07E2,3E0,5E0,2E0,4E0,1E0,4E0,8E0,3E0,3E0,9E0,4E0,3E0,3E0,7E0,5E0,3E0,2E0,5.92E2,1.5E1,1E0,2E0,3E0,2E0,2E0,2E0,3E0,5E0,2E0,1E0,2E0,7E0,4E0,3E0,3E0,2E0,1E0,1E0],"tree_param":{"num_deleted":"0","num_feature":"21","num_nodes":"67","size_leaf_vector":"0"}},{"base_weights":[2.9799067E1,-4.230897E1,4.8929096E1,-2.2013803E1,-2.466896E2,1.3905753E2,2.0930305E1,-4.429959E1,1.4371973E2,-4.5655728E2,-1.6702663E2,2.2923397E1,3.0515695E2,-1.5949367E2,5.716234E1,-1.5017043E1,-1.5836385E2,4.1780502E2,-1.884677E1,-1.1505078E2,-5.6978516E2,-2.2627083E2,-7.9944664E1,2.1688364E2,-1.6191191E2,1.2977318E3,2.4078673E2,-2.1078204E2,5.4941174E2,4.3348462E2,3.772065E1,-5.9171783E1,7.376172E1,-2.3954514E2,7.301144E1,5.7887207E1,-1.6760303E2,-2.5006094E2,-5.3660156E1,2.372168E1,-1.05422264E2,-1.3688257E2,3.011819E2,-3.8316388E2,1.2979405E2,9.379925E1,5.873034E2,2.3253296E2,-2.6731998E2,9.7252734E2,-5.6841145E1,2.1597322E2,1.0864033E3,-1.4193788E2,6.711306E1,1.1792817E2,-8.657764E1,2.9735254E2,-7.378125E-1,-5.2126564E1,-2.8936996E2,-1.2543555E2,1.7747734E2,-2.280371E1,1.108625E2,-5.0307617E1,-1.899323E2,-1.2071045E2,-2.2134766E1,4.298047E1,-2.0400032E2,3.5791595E2,-3.4764127E2,8.513672E0,-4.924362E2,-1.6642188E2,4.445013E2,5.883699E2,-4.121289E1,8.200119E2,1.0157194E2,-1.14288414E2,3.6718814E2,-5.017923E2,-1.4340083E2,-1.5964062E2,7.437891E1,5.682054E2,-1.1922656E2,2.6460107E2,-2.1969722E2,6.54981E2,5.2176674E1],"categories":[],"categories_nodes":[],"categories_segments":[],"categories_sizes":[],"default_left":[1,1,1,1,1,1,1,1,1,1,1,1,1,1,1,1,1,0,1,0,0,1,1,1,1,0,1,1,1,1,1,1,1,1,1,1,1,0,0,0,1,1,1,1,1,1,1,1,1,0,1,1,0,1,1,0,0,0,0,0,0,0,0,0,0,0,0,0,0,0,0,0,0,0,0,0,0,0,0,0,0,0,0,0,0,0,0,0,0,0,0,0,0],"id":21,"left_children":[1,3,5,7,9,11,13,15,17,19,21,23,25,27,29,31,33,-1,35,-1,-1,37,39,41,43,-1,45,47,49,51,53,55,57,59,61,63,65,-1,-1,-1,67,69,71,73,75,77,79,81,83,-1,85,87,-1,89,91,-1,-1,-1,-1,-1,-1,-1,-1,-1,-1,-1,-1,-1,-1,-1,-1,-1,-1,-1,-1,-1,-1,-1,-1,-1,-1,-1,-1,-1,-1,-1,-1,-1,-1,-1,-1,-1,-1],"loss_changes":[9.524966E5,5.960206E5,1.37239E6,4.9760244E5,1.4108562E5,2.4813902E6,2.735099E6,3.9175272E5,7.207876E5,5.0449938E4,3.866097E4,2.79562E6,3.0738135E6,2.660909E6,2.529735E6,3.767649E5,4.6828988E5,0E0,1.3526333E5,0E0,0E0,1.1220219E4,1.8347812E4,1.1744579E6,2.6313532E6,0E0,2.5425252E6,1.7163922E6,1.3378548E6,2.1796592E6,1.7626841E6,3.2083875E5,5.3325656E5,1.5300188E5,1.6737858E5,3.6725074E4,9.214297E2,0E0,0E0,0E0,3.6946758E3,1.0534406E5,1.265548E6,9.885815E5,1.751958E6,2.4948508E6,1.612217E6,4.155757E5,1.6423235E6,0E0,5.2341957E4,1.720699E6,0E0,1.5439056E6,2.477084E6,0E0,0E0,0E0,0E0,0E0,0E0,0E0,0E0,0E0,0E0,0E0,0E0,0E0,0E0,0E0,0E0,0E0,0E0,0E0,0E0,0E0,0E0,0E0,0E0,0E0,0E0,0E0,0E0,0E0,0E0,0E0,0E0,0E0,0E0,0E0,0E0,0E0,0E0],"parents":[2147483647,0,0,1,1,2,2,3,3,4,4,5,5,6,6,7,7,8,8,9,9,10,10,11,11,12,12,13,13,14,14,15,15,16,16,18,18,21,21,22,22,23,23,24,24,26,26,27,27,28,28,29,29,30,30,31,31,32,32,33,33,34,34,35,35,36,36,40,40,41,41,42,42,43,43,44,44,45,45,46,46,47,47,48,48,50,50,51,51,53,53,54,54],"right_children":[2,4,6,8,10,12,14,16,18,20,22,24,26,28,30,32,34,-1,36,-1,-1,38,40,42,44,-1,46,48,50,52,54,56,58,60,62,64,66,-1,-1,-1,68,70,72,74,76,78,80,82,84,-1,86,88,-1,90,92,-1,-1,-1,-1,-1,-1,-1,-1,-1,-1,-1,-1,-1,-1,-1,-1,-1,-1,-1,-1,-1,-1,-1,-1,-1,-1,-1,-1,-1,-1,-1,-1,-1,-1,-1,-1,-1,-1],"split_conditions":[2.3259527E4,2.3378438E4,3.4782004E4,2.1912332E4,2.254894E4,3.1422023E4,3.811324E4,2.0777846E4,2.265675E4,2.1939086E4,2.30342E4,2.905929E4,3.169221E4,4.019294E4,3.763495E4,1.968111E4,2.2517281E4,1.25341515E2,2.2680008E4,-3.4515236E1,-1.7093555E2,3.0393871E4,2.308325E4,2.2774559E4,3.345704E4,3.8931955E2,3.4372863E4,3.3517387E4,3.8232125E4,4.3871297E4,4.0665457E4,1.7645459E4,1.9230602E4,1.96088E4,2.1006428E4,2.2517281E4,2.2878893E4,-7.501829E1,-1.6098047E1,7.116504E0,2.8823428E4,2.2517281E4,3.5002613E4,2.8705934E4,3.2327203E4,3.1566143E4,3.7488016E4,3.5836867E4,3.5906953E4,2.917582E2,4.556658E4,3.876169E4,3.2592102E2,3.8076938E4,4.094242E4,3.5378452E1,-2.5973291E1,8.9205765E1,-2.2134377E-1,-1.563797E1,-8.681099E1,-3.7630665E1,5.3243206E1,-6.8411136E0,3.325875E1,-1.5092286E1,-5.697969E1,-3.6213135E1,-6.64043E0,1.2894141E1,-6.12001E1,1.07374794E2,-1.0429238E2,2.5541017E0,-1.4773087E2,-4.9926563E1,1.333504E2,1.7651097E2,-1.2363868E1,2.4600359E2,3.0471582E1,-3.4286526E1,1.1015645E2,-1.5053769E2,-4.3020252E1,-4.789219E1,2.2313673E1,1.7046162E2,-3.576797E1,7.9380325E1,-6.590917E1,1.9649431E2,1.5653003E1],"split_indices":[20,15,4,14,6,4,7,17,14,0,18,11,4,5,4,20,19,0,1,0,0,4,1,14,11,0,2,2,6,11,1,15,2,4,16,4,1,0,0,0,1,12,18,8,8,14,0,5,0,0,0,10,0,11,1,0,0,0,0,0,0,0,0,0,0,0,0,0,0,0,0,0,0,0,0,0,0,0,0,0,0,0,0,0,0,0,0,0,0,0,0,0,0],"split_type":[0,0,0,0,0,0,0,0,0,0,0,0,0,0,0,0,0,0,0,0,0,0,0,0,0,0,0,0,0,0,0,0,0,0,0,0,0,0,0,0,0,0,0,0,0,0,0,0,0,0,0,0,0,0,0,0,0,0,0,0,0,0,0,0,0,0,0,0,0,0,0,0,0,0,0,0,0,0,0,0,0,0,0,0,0,0,0,0,0,0,0,0,0],"sum_hessian":[6.88E2,1.44E2,5.44E2,1.32E2,1.2E1,1.28E2,4.16E2,1.17E2,1.5E1,2E0,1E1,7.6E1,5.2E1,6.9E1,3.47E2,9.4E1,2.3E1,5E0,1E1,1E0,1E0,5E0,5E0,3.7E1,3.9E1,2E0,5E1,6.5E1,4E0,1.6E1,3.31E2,6.3E1,3.1E1,1.7E1,6E0,7E0,3E0,4E0,1E0,1E0,4E0,7E0,3E1,2.2E1,1.7E1,3.6E1,1.4E1,7E0,5.8E1,2E0,2E0,1.3E1,3E0,4.6E1,2.85E2,8E0,5.5E1,7E0,2.4E1,4E0,1.3E1,2E0,4E0,3E0,4E0,1E0,2E0,3E0,1E0,2E0,5E0,2.8E1,2E0,5E0,1.7E1,9E0,8E0,7E0,2.9E1,9E0,5E0,2E0,5E0,1.9E1,3.9E1,1E0,1E0,6E0,7E0,7E0,3.9E1,6E0,2.79E2],"tree_param":{"num_deleted":"0","num_feature":"21","num_nodes":"93","size_leaf_vector":"0"}},{"base_weights":[2.2770422E1,-2.7344522E1,4.618003E1,-4.476755E0,-2.83723E2,1.746248E2,2.0960674E1,-2.0554014E1,4.4862277E2,3.961608E2,-3.934685E2,9.945518E1,4.3407904E2,-2.867646E2,3.3052567E1,-2.9394041E1,5.608991E2,6.5347034E2,-4.233073E1,-5.5782117E2,-2.390748E2,1.4756601E2,-6.230156E2,1.770245E2,7.760106E2,-4.3913196E2,-4.989732E1,4.1390732E2,2.1640524E1,-9.763002E0,-1.915863E2,1.9199121E2,7.208423E2,-7.7140625E1,1.3644531E1,3.4401855E1,-3.6119363E2,7.935596E2,9.7901634E1,3.241399E2,-1.614624E2,8.862207E2,5.7375E1,-5.1170215E2,7.071484E1,5.1479492E1,-1.387998E2,4.8860676E1,7.099694E2,-2.176377E2,4.2627934E1,-1.744293E1,4.363672E2,-7.6356025E0,-2.6465756E2,1.26578125E2,-3.8516277E1,-2.8425644E2,1.7885118E2,2.0451172E1,3.646024E2,-9.189453E0,-3.0914062E2,-2.410498E2,-6.258836E2,-6.921875E0,7.325391E1,2.0523828E2,-8.0637695E1,3.5799707E2,9.426094E2,-6.856185E1,-5.089332E2,4.5375305E2,3.1388432E1],"categories":[],"categories_nodes":[],"categories_segments":[],"categories_sizes":[],"default_left":[1,1,1,1,1,1,1,1,1,0,1,1,1,1,1,1,0,1,1,0,1,1,0,1,1,1,1,1,1,1,1,0,0,0,0,1,0,0,1,1,1,0,0,1,0,1,0,1,1,1,1,0,0,0,0,0,0,0,0,0,0,0,0,0,0,0,0,0,0,0,0,0,0,0,0],"id":22,"left_children":[1,3,5,7,9,11,13,15,17,-1,19,21,23,25,27,29,-1,31,33,-1,35,37,-1,39,41,43,45,47,49,51,53,-1,-1,-1,-1,55,-1,-1,57,59,61,-1,-1,63,-1,65,-1,67,69,71,73,-1,-1,-1,-1,-1,-1,-1,-1,-1,-1,-1,-1,-1,-1,-1,-1,-1,-1,-1,-1,-1,-1,-1,-1],"loss_changes":[8.095778E5,1.2885465E6,1.5188079E6,1.4879945E6,1.4989326E6,1.4585658E6,1.4755444E6,1.0290791E6,7.3165625E5,0E0,2.72639E5,2.2122148E6,1.356843E6,5.1945112E5,1.6426481E6,6.1901E5,0E0,1.705825E4,6.8980264E3,0E0,3.4639225E5,1.7831155E6,0E0,6.000994E5,5.035595E5,3.6918225E5,7.023391E4,1.1541515E6,1.8673542E6,6.072049E5,2.802508E5,0E0,0E0,0E0,0E0,3.1760604E4,0E0,0E0,1.7522934E6,9.08475E4,8.710877E4,0E0,0E0,9.635875E4,0E0,5.5936777E3,0E0,1.3805383E5,1.5384575E5,1.2678604E6,1.5614642E6,0E0,0E0,0E0,0E0,0E0,0E0,0E0,0E0,0E0,0E0,0E0,0E0,0E0,0E0,0E0,0E0,0E0,0E0,0E0,0E0,0E0,0E0,0E0,0E0],"parents":[2147483647,0,0,1,1,2,2,3,3,4,4,5,5,6,6,7,7,8,8,10,10,11,11,12,12,13,13,14,14,15,15,17,17,18,18,20,20,21,21,23,23,24,24,25,25,26,26,27,27,28,28,29,29,30,30,35,35,38,38,39,39,40,40,43,43,45,45,47,47,48,48,49,49,50,50],"right_children":[2,4,6,8,10,12,14,16,18,-1,20,22,24,26,28,30,-1,32,34,-1,36,38,-1,40,42,44,46,48,50,52,54,-1,-1,-1,-1,56,-1,-1,58,60,62,-1,-1,64,-1,66,-1,68,70,72,74,-1,-1,-1,-1,-1,-1,-1,-1,-1,-1,-1,-1,-1,-1,-1,-1,-1,-1,-1,-1,-1,-1,-1,-1],"split_conditions":[3.132341E4,3.2479363E4,3.489213E4,3.1138191E4,2.8742621E4,3.489213E4,3.600538E4,3.1898809E4,3.4562336E4,1.1884824E2,3.4732633E4,3.646646E4,3.457118E4,3.612778E4,3.4859016E4,2.8976854E4,1.6826974E2,3.0739816E4,3.1512732E4,-1.6734636E2,3.780189E4,3.1102988E4,-1.869047E2,3.698782E4,3.649662E4,3.889275E4,3.751104E4,3.579993E4,3.811324E4,2.889724E4,2.8813848E4,5.7597366E1,2.162527E2,-2.3142189E1,4.0933595E0,3.2606973E4,-1.0835809E2,2.3806789E2,2.9022277E4,3.1849555E4,4.1191305E4,2.658662E2,1.7212502E1,3.5078133E4,2.1214455E1,3.2904543E4,-4.1639942E1,3.1806277E4,3.461913E4,4.149653E4,3.797735E4,-5.232879E0,1.3091016E2,-2.290681E0,-7.939727E1,3.797344E1,-1.1554884E1,-8.527693E1,5.3655357E1,6.1353517E0,1.0938072E2,-2.756836E0,-9.274219E1,-7.231494E1,-1.8776509E2,-2.0765626E0,2.1976173E1,6.1571487E1,-2.4191309E1,1.07399124E2,2.8278284E2,-2.0568556E1,-1.5267996E2,1.3612592E2,9.41653E0],"split_indices":[17,12,5,12,20,3,5,18,3,0,3,7,17,12,8,13,0,0,0,0,4,18,0,3,4,2,0,13,7,13,6,0,0,0,0,0,0,0,5,0,0,0,0,4,0,3,0,12,8,11,6,0,0,0,0,0,0,0,0,0,0,0,0,0,0,0,0,0,0,0,0,0,0,0,0],"split_type":[0,0,0,0,0,0,0,0,0,0,0,0,0,0,0,0,0,0,0,0,0,0,0,0,0,0,0,0,0,0,0,0,0,0,0,0,0,0,0,0,0,0,0,0,0,0,0,0,0,0,0,0,0,0,0,0,0,0,0,0,0,0,0,0,0,0,0,0,0,0,0,0,0,0,0],"sum_hessian":[6.88E2,2.19E2,4.69E2,2.02E2,1.7E1,7.6E1,3.93E2,1.96E2,6E0,2E0,1.5E1,6E1,1.6E1,1.4E1,3.79E2,1.94E2,2E0,4E0,2E0,6E0,9E0,5.7E1,3E0,1E1,6E0,8E0,6E0,1E1,3.69E2,1.74E2,2E1,1E0,3E0,1E0,1E0,3E0,6E0,3E0,5.4E1,7E0,3E0,5E0,1E0,7E0,1E0,3E0,3E0,5E0,5E0,2.9E1,3.4E2,1.72E2,2E0,6E0,1.4E1,1E0,2E0,9E0,4.5E1,1E0,6E0,2E0,1E0,3E0,4E0,1E0,2E0,2E0,3E0,3E0,2E0,2E1,9E0,8E0,3.32E2],"tree_param":{"num_deleted":"0","num_feature":"21","num_nodes":"75","size_leaf_vector":"0"}},{"base_weights":[1.7097464E1,5.246323E0,1.1122281E2,2.166324E1,-1.0132741E2,5.5478174E2,5.8941463E1,3.058719E0,2.940748E2,-6.439874E2,1.02460375E1,-6.0609375E1,6.513532E2,-4.7281033E1,1.6651485E2,-2.4637806E0,6.87084E2,4.3875854E2,-2.3099219E2,-2.2387988E3,-3.4909436E2,1.9931203E2,-1.586573E2,2.637578E2,7.5363983E2,4.317526E2,-8.815809E1,6.4583514E2,8.383367E1,1.883374E1,-1.6362149E2,8.3643097E2,1.19521484E2,7.958116E1,5.858026E2,1.8912305E2,-5.208859E2,-5.5072918E1,-5.2597363E2,-5.425742E2,2.6467804E2,-4.3441797E2,2.808475E1,-4.5581876E2,-2.3942709E1,7.937998E2,2.6988281E1,4.428776E2,4.3800377E1,6.3902717E0,6.1264496E2,-3.6259024E2,4.785035E1,2.5569922E2,-1.12453125E2,3.3657388E2,8.864204E2,2.4272527E2,1.4158203E1,-4.0065884E2,2.1788477E2,2.172461E1,-6.0731976E2,3.475631E1,4.080625E2,-5.5464386E2,3.4864258E1,9.61082E1,-3.190537E2,-1.1593359E2,-5.1180664E2,2.7299478E2,-9.425E1,-1.5698567E2,6.44877E1],"categories":[],"categories_nodes":[],"categories_segments":[],"categories_sizes":[],"default_left":[1,1,1,1,1,1,1,1,1,1,1,0,1,1,1,1,1,1,1,0,1,1,1,0,0,0,1,1,1,1,1,0,0,1,1,1,0,1,1,0,1,1,1,1,1,0,0,0,1,0,0,0,0,0,0,0,0,0,0,0,0,0,0,0,0,0,0,0,0,0,0,0,0,0,0],"id":23,"left_children":[1,3,5,7,9,11,13,15,17,19,21,-1,23,25,27,29,31,33,35,-1,37,39,41,-1,-1,-1,43,45,47,49,51,-1,-1,53,55,57,-1,59,61,-1,63,65,67,69,71,-1,-1,-1,73,-1,-1,-1,-1,-1,-1,-1,-1,-1,-1,-1,-1,-1,-1,-1,-1,-1,-1,-1,-1,-1,-1,-1,-1,-1,-1],"loss_changes":[7.67991E5,1.0747074E6,1.7529195E6,2.6953225E6,4.971407E6,5.14912E5,8.077429E5,1.88668E6,2.684284E6,5.8026315E6,2.2350598E6,0E0,7.874225E4,7.429959E5,1.332934E6,1.7054825E6,2.3908338E5,1.3793835E6,1.0728218E6,0E0,6.47115E5,1.7439144E6,1.9175565E6,0E0,0E0,0E0,7.918084E5,4.36414E5,4.2618675E5,3.2398875E6,2.4577748E6,0E0,0E0,3.331405E5,1.1251835E6,3.4077438E4,0E0,6.532795E5,3.6961875E5,0E0,1.0078005E6,8.656355E5,5.737755E5,3.5811688E4,6.520359E5,0E0,0E0,0E0,1.3058172E5,0E0,0E0,0E0,0E0,0E0,0E0,0E0,0E0,0E0,0E0,0E0,0E0,0E0,0E0,0E0,0E0,0E0,0E0,0E0,0E0,0E0,0E0,0E0,0E0,0E0,0E0],"parents":[2147483647,0,0,1,1,2,2,3,3,4,4,5,5,6,6,7,7,8,8,9,9,10,10,12,12,13,13,14,14,15,15,16,16,17,17,18,18,20,20,21,21,22,22,26,26,27,27,28,28,29,29,30,30,33,33,34,34,35,35,37,37,38,38,40,40,41,41,42,42,43,43,44,44,48,48],"right_children":[2,4,6,8,10,12,14,16,18,20,22,-1,24,26,28,30,32,34,36,-1,38,40,42,-1,-1,-1,44,46,48,50,52,-1,-1,54,56,58,-1,60,62,-1,64,66,68,70,72,-1,-1,-1,74,-1,-1,-1,-1,-1,-1,-1,-1,-1,-1,-1,-1,-1,-1,-1,-1,-1,-1,-1,-1,-1,-1,-1,-1,-1,-1],"split_conditions":[5.561839E4,4.7806484E4,5.2899297E4,4.660657E4,4.8293016E4,4.366119E4,5.856717E4,5.0776574E4,4.838157E4,4.5046004E4,5.456864E4,-1.8182814E1,4.729964E4,3.4333535E4,5.9669266E4,4.3237293E4,5.1324555E4,4.379482E4,4.527656E4,-6.7163965E2,4.6347133E4,4.42879E4,5.661729E4,7.912735E1,2.2609196E2,1.2952579E2,4.7220258E4,6.290171E4,5.390832E4,4.3276496E4,4.562616E4,2.509293E2,3.5856445E1,4.636726E4,4.6876164E4,4.465143E4,-1.5626578E2,4.4399664E4,4.503653E4,-1.6277228E2,5.0501344E4,5.734954E4,6.052658E4,5.501784E4,5.36361E4,2.3813995E2,8.096485E0,1.3286328E2,5.7923285E4,1.9170816E0,1.8379349E2,-1.0877708E2,1.4355105E1,7.670977E1,-3.373594E1,1.0097217E2,2.6592615E2,7.281758E1,4.2474613E0,-1.20197655E2,6.536543E1,6.517383E0,-1.8219594E2,1.0426893E1,1.22418755E2,-1.6639316E2,1.0459278E1,2.883246E1,-9.571612E1,-3.478008E1,-1.5354199E2,8.189844E1,-2.8275002E1,-4.7095703E1,1.9346312E1],"split_indices":[0,6,3,6,7,8,5,4,7,0,11,0,11,18,5,5,0,0,0,0,11,8,11,0,0,0,12,0,8,6,4,0,0,19,8,1,0,10,1,0,5,10,19,2,5,0,0,0,1,0,0,0,0,0,0,0,0,0,0,0,0,0,0,0,0,0,0,0,0,0,0,0,0,0,0],"split_type":[0,0,0,0,0,0,0,0,0,0,0,0,0,0,0,0,0,0,0,0,0,0,0,0,0,0,0,0,0,0,0,0,0,0,0,0,0,0,0,0,0,0,0,0,0,0,0,0,0,0,0,0,0,0,0,0,0,0,0,0,0,0,0,0,0,0,0,0,0,0,0,0,0,0,0],"sum_hessian":[6.88E2,6.12E2,7.6E1,5.31E2,8.1E1,7E0,6.9E1,4.98E2,3.3E1,1.3E1,6.8E1,1E0,6E0,3.5E1,3.4E1,4.95E2,3E0,2.6E1,7E0,1E0,1.2E1,3.2E1,3.6E1,2E0,4E0,2E0,3.3E1,4E0,3E1,4.38E2,5.7E1,2E0,1E0,8E0,1.8E1,3E0,4E0,5E0,7E0,2E0,3E1,1.4E1,2.2E1,4E0,2.9E1,3E0,1E0,2E0,2.8E1,4.3E2,8E0,2.9E1,2.8E1,4E0,4E0,1.1E1,7E0,2E0,1E0,2E0,3E0,1E0,6E0,1.2E1,1.8E1,1.1E1,3E0,1.9E1,3E0,1E0,3E0,5E0,2.4E1,2E0,2.6E1],"tree_param":{"num_deleted":"0","num_feature":"21","num_nodes":"75","size_leaf_vector":"0"}},{"base_weights":[1.2239103E1,9.766544E0,2.9207095E2,-1.2972981E1,3.24113E1,-9.601823E1,5.1012012E2,4.392785E0,-4.5279837E2,2.6543427E2,-1.8734375E0,-1.11171875E1,-1.3291016E2,-9.395924E0,2.0773122E2,-6.167202E2,-1.5876953E2,-1.7061914E2,3.3877478E2,5.268618E2,-1.6303501E1,6.517504E0,-2.2870535E2,7.6574365E2,-1.25970985E2,-1.6661589E2,-7.3898566E2,-1.5825195E1,-2.964388E2,-2.3559024E2,-5.4609375E0,2.695401E2,7.418156E2,2.9646875E2,8.1202734E2,-3.2568005E2,1.3771477E1,-1.7890285E0,6.0088184E2,-4.940923E2,-6.0719585E1,1.6418633E3,2.0005989E2,3.3361197E2,-2.3036914E2,-2.2406445E2,-2.5859375E1,-3.0688803E1,1.43828125E1,9.363281E0,-1.7554688E1,3.7212292E2,-3.9986484E2,9.0336426E2,4.7810547E1,3.9068164E2,7.202865E1,1.9971191E1,-4.540764E2,3.0467337E2,-1.0916874E1],"categories":[],"categories_nodes":[],"categories_segments":[],"categories_sizes":[],"default_left":[1,1,1,1,1,1,0,1,1,1,1,0,0,1,1,1,1,1,1,1,1,1,1,1,1,1,0,1,0,0,1,1,1,1,0,1,1,0,0,0,0,0,0,0,0,0,0,0,0,0,0,0,0,0,0,0,0,0,0,0,0],"id":24,"left_children":[1,3,5,7,9,11,-1,13,15,17,19,-1,-1,21,23,25,27,29,31,33,35,37,39,41,43,45,-1,47,-1,-1,49,51,53,55,-1,57,59,-1,-1,-1,-1,-1,-1,-1,-1,-1,-1,-1,-1,-1,-1,-1,-1,-1,-1,-1,-1,-1,-1,-1,-1],"loss_changes":[4.7386703E5,3.526333E5,5.56716E5,2.6141525E6,2.7407692E6,7.9189023E3,0E0,9.2719744E5,5.2865425E5,1.4649378E6,2.2974945E6,0E0,0E0,1.0833798E6,4.0068705E6,3.17131E5,1.1338308E5,7.382705E4,8.604185E5,2.848605E5,2.7307018E6,1.4328359E6,9.062046E5,3.636383E6,7.485685E5,1.8464617E4,0E0,2.2373914E3,0E0,0E0,7.0221063E2,2.4835602E6,5.173875E5,9.8730625E4,0E0,1.1629575E6,1.928072E6,0E0,0E0,0E0,0E0,0E0,0E0,0E0,0E0,0E0,0E0,0E0,0E0,0E0,0E0,0E0,0E0,0E0,0E0,0E0,0E0,0E0,0E0,0E0,0E0],"parents":[2147483647,0,0,1,1,2,2,3,3,4,4,5,5,7,7,8,8,9,9,10,10,13,13,14,14,15,15,16,16,17,17,18,18,19,19,20,20,21,21,22,22,23,23,24,24,25,25,27,27,30,30,31,31,32,32,33,33,35,35,36,36],"right_children":[2,4,6,8,10,12,-1,14,16,18,20,-1,-1,22,24,26,28,30,32,34,36,38,40,42,44,46,-1,48,-1,-1,50,52,54,56,-1,58,60,-1,-1,-1,-1,-1,-1,-1,-1,-1,-1,-1,-1,-1,-1,-1,-1,-1,-1,-1,-1,-1,-1,-1,-1],"split_conditions":[6.3446105E4,3.8166297E4,5.856717E4,3.8147477E4,3.929287E4,6.325592E4,1.5303604E2,3.8126023E4,3.8175016E4,3.646646E4,3.4668023E4,-3.3351564E0,-3.9873047E1,3.6724996E4,3.8434312E4,3.1644402E4,3.9629258E4,3.6046312E4,4.064075E4,3.649662E4,3.979209E4,3.7222895E4,3.4680547E4,3.872991E4,3.0316434E4,2.7862547E4,-2.2169571E2,3.861548E4,-8.893165E1,-7.067708E1,3.8100914E4,3.894239E4,3.8486633E4,4.252943E4,2.4360822E2,4.034853E4,4.180625E4,-5.367086E-1,1.8026456E2,-1.4822769E2,-1.8215876E1,4.92559E2,6.001797E1,1.00083595E2,-6.911075E1,-6.721934E1,-7.757813E0,-9.206641E0,4.314844E0,2.8089845E0,-5.2664065E0,1.1163688E2,-1.1995946E2,2.7100928E2,1.4343164E1,1.172045E2,2.1608595E1,5.991358E0,-1.3622292E2,9.1402016E1,-3.2750623E0],"split_indices":[1,14,7,15,9,0,0,18,12,12,20,0,0,13,17,4,4,4,10,19,18,14,20,18,0,0,0,0,0,0,0,10,0,14,0,5,14,0,0,0,0,0,0,0,0,0,0,0,0,0,0,0,0,0,0,0,0,0,0,0,0],"split_type":[0,0,0,0,0,0,0,0,0,0,0,0,0,0,0,0,0,0,0,0,0,0,0,0,0,0,0,0,0,0,0,0,0,0,0,0,0,0,0,0,0,0,0,0,0,0,0,0,0,0,0,0,0,0,0,0,0,0,0,0,0],"sum_hessian":[6.88E2,6.83E2,5E0,3.41E2,3.42E2,2E0,3E0,3.29E2,1.2E1,4.3E1,2.99E2,1E0,1E0,3.09E2,2E1,7E0,5E0,6E0,3.7E1,7E0,2.92E2,2.89E2,2E1,7E0,1.3E1,2E0,5E0,3E0,2E0,4E0,2E0,3.3E1,4E0,5E0,2E0,2.5E1,2.67E2,2.86E2,3E0,7E0,1.3E1,2E0,5E0,2E0,1.1E1,1E0,1E0,2E0,1E0,1E0,1E0,2.9E1,4E0,3E0,1E0,3E0,2E0,7E0,1.8E1,2E1,2.47E2],"tree_param":{"num_deleted":"0","num_feature":"21","num_nodes":"61","size_leaf_vector":"0"}},{"base_weights":[9.815482E0,5.484394E-1,8.3463295E1,1.2772857E1,-1.0095958E2,6.057168E2,5.4105495E1,-3.006232E0,1.6660057E2,-1.9013418E3,-4.4009975E1,1.8492188E2,6.843411E2,-1.1735469E2,7.9651596E1,1.3716142E1,-1.9482031E2,6.6339844E2,1.1020504E2,-4.694418E2,3.2745884E1,2.9913022E2,-2.588672E2,2.8552002E2,4.9882645E1,-3.2506156E0,2.017755E2,-4.3789615E2,-1.4524089E1,1.6461328E2,7.469414E2,2.1379688E2,-2.9446445E2,-1.599135E2,-8.9375586E2,3.5346094E2,-2.8070395E1,3.742461E2,7.444922E1,-3.1263803E2,-6.503646E1,1.1639297E2,4.2554883E2,-7.8826355E1,1.196986E2,-1.6530664E1,2.6450488E2,6.970762E2,1.05606415E2,1.9763933E2,-5.358102E2,1.0187089E2,-3.806875E2,-8.176534E1,3.7075986E2,6.651172E1,-5.462005E2,2.4458008E1,-3.0430664E2,4.707863E2,-3.811849E1,-3.9799554E2,3.425214E1,-9.968359E1,-3.9419434E2,3.2303387E1,1.6168489E2,-1.376752E2,1.37025E2,4.3204166E2,5.9281723E1],"categories":[],"categories_nodes":[],"categories_segments":[],"categories_sizes":[],"default_left":[1,1,1,1,1,1,1,1,1,0,1,0,0,1,1,1,1,1,1,1,1,1,1,1,1,1,1,1,1,0,0,1,1,1,0,1,1,0,0,1,0,1,0,1,1,0,0,0,0,0,0,0,0,0,0,0,0,0,0,0,0,0,0,0,0,0,0,0,0,0,0],"id":25,"left_children":[1,3,5,7,9,11,13,15,17,-1,19,-1,-1,21,23,25,27,29,31,33,35,37,39,41,43,45,47,49,51,-1,-1,53,55,57,-1,59,61,-1,-1,63,-1,65,-1,67,69,-1,-1,-1,-1,-1,-1,-1,-1,-1,-1,-1,-1,-1,-1,-1,-1,-1,-1,-1,-1,-1,-1,-1,-1,-1,-1],"loss_changes":[4.7019494E5,7.619467E5,1.147808E6,1.33064E6,6.6833715E6,5.78925E3,3.3347775E5,1.6000505E6,1.3557662E6,0E0,2.1379075E6,0E0,0E0,6.668131E5,3.841091E5,1.4652135E6,1.746666E6,8.539325E4,2.033217E6,1.1704485E6,1.1021848E6,2.2769E4,6.3046688E4,1.3993044E5,5.3062006E5,1.5049225E6,1.7364232E6,1.16377E6,1.061651E6,0E0,0E0,1.7932236E6,9.450359E5,1.9379661E5,0E0,4.3142538E5,1.1202564E6,0E0,0E0,6.4911938E4,0E0,1.3819922E4,0E0,2.8561962E5,6.9147794E5,0E0,0E0,0E0,0E0,0E0,0E0,0E0,0E0,0E0,0E0,0E0,0E0,0E0,0E0,0E0,0E0,0E0,0E0,0E0,0E0,0E0,0E0,0E0,0E0,0E0,0E0],"parents":[2147483647,0,0,1,1,2,2,3,3,4,4,5,5,6,6,7,7,8,8,10,10,13,13,14,14,15,15,16,16,17,17,18,18,19,19,20,20,21,21,22,22,23,23,24,24,25,25,26,26,27,27,28,28,31,31,32,32,33,33,35,35,36,36,39,39,41,41,43,43,44,44],"right_children":[2,4,6,8,10,12,14,16,18,-1,20,-1,-1,22,24,26,28,30,32,34,36,38,40,42,44,46,48,50,52,-1,-1,54,56,58,-1,60,62,-1,-1,64,-1,66,-1,68,70,-1,-1,-1,-1,-1,-1,-1,-1,-1,-1,-1,-1,-1,-1,-1,-1,-1,-1,-1,-1,-1,-1,-1,-1,-1,-1],"split_conditions":[5.561839E4,4.9073723E4,5.2663062E4,4.6552477E4,4.4789062E4,4.40826E4,4.778608E4,4.5598902E4,4.3878797E4,-5.704026E2,4.9585945E4,5.5476566E1,2.0530235E2,3.543218E4,5.357325E4,4.251001E4,4.6681086E4,4.1137125E4,4.9892742E4,4.7821805E4,4.657271E4,5.682157E4,5.523044E4,5.5741555E4,5.7923285E4,4.718246E4,3.6967695E4,4.434278E4,4.6532695E4,4.9383987E1,2.2408243E2,4.3302617E4,4.7161547E4,5.0501344E4,-2.6812677E2,5.3080242E4,5.3160516E4,1.12273834E2,2.2334766E1,5.5286438E4,-1.9510939E1,5.500068E4,1.2766465E2,5.7923285E4,5.3349684E4,-4.9591994E0,7.935147E1,2.0912286E2,3.1681925E1,5.92918E1,-1.6074306E2,3.0561268E1,-1.1420625E2,-2.4529604E1,1.1122796E2,1.9953516E1,-1.6386015E2,7.337403E0,-9.129199E1,1.4123589E2,-1.1435547E1,-1.1939867E2,1.0275642E1,-2.9905079E1,-1.1825831E2,9.691016E0,4.850547E1,-4.1302563E1,4.11075E1,1.296125E2,1.7784517E1],"split_indices":[0,6,2,4,2,2,12,1,2,0,5,0,0,18,5,1,0,1,17,3,13,0,5,18,5,20,16,0,10,0,0,17,5,6,0,0,5,0,0,2,0,2,0,7,20,0,0,0,0,0,0,0,0,0,0,0,0,0,0,0,0,0,0,0,0,0,0,0,0,0,0],"split_type":[0,0,0,0,0,0,0,0,0,0,0,0,0,0,0,0,0,0,0,0,0,0,0,0,0,0,0,0,0,0,0,0,0,0,0,0,0,0,0,0,0,0,0,0,0,0,0,0,0,0,0,0,0,0,0,0,0,0,0,0,0,0,0,0,0,0,0,0,0,0,0],"sum_hessian":[6.88E2,6.12E2,7.6E1,5.47E2,6.5E1,3E0,7.3E1,4.97E2,5E1,1E0,6.4E1,1E0,2E0,9E0,6.4E1,4.58E2,3.9E1,4E0,4.6E1,9E0,5.5E1,2E0,7E0,7E0,5.7E1,4.21E2,3.7E1,1.6E1,2.3E1,1E0,3E0,3.7E1,9E0,6E0,3E0,8E0,4.7E1,1E0,1E0,5E0,2E0,4E0,3E0,2E1,3.7E1,4.02E2,1.9E1,5E0,3.2E1,2E0,1.4E1,1.8E1,5E0,1.3E1,2.4E1,4E0,5E0,3E0,3E0,6E0,2E0,6E0,4.1E1,2E0,3E0,2E0,2E0,1.6E1,4E0,5E0,3.2E1],"tree_param":{"num_deleted":"0","num_feature":"21","num_nodes":"71","size_leaf_vector":"0"}},{"base_weights":[6.8787303E0,2.8904376E0,1.2224015E2,1.4574321E1,-5.4520584E1,2.686662E2,-1.1061899E1,-1.0648369E0,1.8363298E2,-2.8524313E2,4.3930287E0,4.4707877E2,4.547591E1,-7.1848434E1,1.4366992E2,1.20217285E1,-1.1001588E3,4.2287357E2,1.0754434E2,-1.7723763E2,-9.462005E2,5.122666E2,-1.8742054E1,1.1406055E2,4.908703E2,-2.9520508E1,1.303125E2,-9.207856E1,5.511133E1,4.0552734E1,1.6452473E2,1.2166123E0,3.0369226E2,-1.281764E3,-9.606641E1,-5.8441406E1,6.106719E2,5.135973E1,4.568539E2,-4.6591553E2,3.8099888E-1,5.5203125E1,6.4622003E2,-1.22975914E2,3.4575874E1,-8.1791016E1,1.5166667E1,5.13125E1,-1.16416504E2,-9.939245E0,1.0838341E2,4.9859592E2,9.790977E1,2.0821289E2,-2.1673047E2,3.6652423E2,7.631885E2,2.0489421E2,-3.4720882E1,8.946289E1,5.2633594E2,-9.1248695E1,-5.755964E2,-1.19616455E2,1.3746652E2,-3.1360742E2,-2.6343006E1,1.4813043E2,-3.694658E1],"categories":[],"categories_nodes":[],"categories_segments":[],"categories_sizes":[],"default_left":[1,1,1,1,1,1,1,1,1,1,1,1,1,1,1,1,1,1,1,1,0,1,1,0,0,1,0,1,0,0,0,1,1,0,0,1,1,1,1,1,1,0,0,1,1,0,0,0,0,0,0,0,0,0,0,0,0,0,0,0,0,0,0,0,0,0,0,0,0],"id":26,"left_children":[1,3,5,7,9,11,13,15,17,19,21,23,25,27,29,31,33,35,37,39,-1,41,43,-1,-1,45,-1,47,-1,-1,-1,49,51,-1,-1,53,55,57,59,61,63,-1,-1,65,67,-1,-1,-1,-1,-1,-1,-1,-1,-1,-1,-1,-1,-1,-1,-1,-1,-1,-1,-1,-1,-1,-1,-1,-1],"loss_changes":[3.166522E5,4.482073E5,4.5190647E5,1.4675795E6,1.5372279E6,4.1768825E5,1.3259542E5,7.3343595E6,8.100864E5,1.4741994E6,1.0788234E6,3.151125E4,4.202153E4,3.0758684E4,1.9300312E3,1.5880038E6,9.70955E5,1.02997975E6,7.0269156E5,1.0769435E6,0E0,2.0922762E5,4.933149E5,0E0,0E0,1.0583781E4,0E0,3.738222E4,0E0,0E0,0E0,5.8330406E5,6.7312225E5,0E0,0E0,2.1395992E5,1.81655E4,4.4325338E5,8.0547875E4,2.7622775E5,2.4674203E5,0E0,0E0,5.44377E5,4.8465328E5,0E0,0E0,0E0,0E0,0E0,0E0,0E0,0E0,0E0,0E0,0E0,0E0,0E0,0E0,0E0,0E0,0E0,0E0,0E0,0E0,0E0,0E0,0E0,0E0],"parents":[2147483647,0,0,1,1,2,2,3,3,4,4,5,5,6,6,7,7,8,8,9,9,10,10,11,11,12,12,13,13,14,14,15,15,16,16,17,17,18,18,19,19,21,21,22,22,25,25,27,27,31,31,32,32,35,35,36,36,37,37,38,38,39,39,40,40,43,43,44,44],"right_children":[2,4,6,8,10,12,14,16,18,20,22,24,26,28,30,32,34,36,38,40,-1,42,44,-1,-1,46,-1,48,-1,-1,-1,50,52,-1,-1,54,56,58,60,62,64,-1,-1,66,68,-1,-1,-1,-1,-1,-1,-1,-1,-1,-1,-1,-1,-1,-1,-1,-1,-1,-1,-1,-1,-1,-1,-1,-1],"split_conditions":[6.027625E4,4.9073723E4,6.0991953E4,4.684473E4,5.304933E4,5.9908844E4,6.33239E4,4.669449E4,4.5444516E4,5.4434734E4,4.2382305E4,5.994136E4,5.9908844E4,6.1138547E4,5.9858836E4,4.7876477E4,4.89254E4,4.4676945E4,4.8785637E4,4.640003E4,-2.8386017E2,4.1348242E4,5.537958E4,3.4218166E1,1.472611E2,5.7582633E4,3.909375E1,5.3999703E4,1.65334E1,1.2165821E1,4.935742E1,4.445778E4,4.7179297E4,-3.8452924E2,-2.8819923E1,5.029614E4,4.5250633E4,4.6143562E4,4.773011E4,4.173716E4,4.7347625E4,1.6560938E1,1.9386601E2,5.3241156E4,5.3715305E4,-2.4537306E1,4.55E0,1.539375E1,-3.4924953E1,-2.9817736E0,3.2515022E1,1.4957878E2,2.937293E1,6.246387E1,-6.501914E1,1.09957275E2,2.2895656E2,6.1468266E1,-1.04162655E1,2.683887E1,1.5790079E2,-2.7374609E1,-1.7267892E2,-3.5884937E1,4.123996E1,-9.408223E1,-7.902902E0,4.4439133E1,-1.1083974E1],"split_indices":[11,14,10,14,14,4,15,14,20,15,5,10,1,3,0,20,4,16,14,4,0,0,16,0,0,0,0,0,0,0,0,11,18,0,0,1,0,11,0,0,17,0,0,10,4,0,0,0,0,0,0,0,0,0,0,0,0,0,0,0,0,0,0,0,0,0,0,0,0],"split_type":[0,0,0,0,0,0,0,0,0,0,0,0,0,0,0,0,0,0,0,0,0,0,0,0,0,0,0,0,0,0,0,0,0,0,0,0,0,0,0,0,0,0,0,0,0,0,0,0,0,0,0,0,0,0,0,0,0,0,0,0,0,0,0,0,0,0,0,0,0],"sum_hessian":[6.88E2,6.66E2,2.2E1,5.54E2,1.12E2,1E1,1.2E1,5.08E2,4.6E1,2.2E1,9E1,5E0,5E0,9E0,3E0,5.03E2,5E0,1E1,3.6E1,2E1,2E0,3E0,8.7E1,1E0,4E0,3E0,2E0,8E0,1E0,1E0,2E0,4.86E2,1.7E1,4E0,1E0,3E0,7E0,3.2E1,4E0,7E0,1.3E1,1E0,2E0,2.9E1,5.8E1,1E0,2E0,1E0,7E0,4.41E2,4.5E1,8E0,9E0,1E0,2E0,4E0,3E0,1.1E1,2.1E1,1E0,3E0,2E0,5E0,7E0,6E0,9E0,2E1,2.2E1,3.6E1],"tree_param":{"num_deleted":"0","num_feature":"21","num_nodes":"69","size_leaf_vector":"0"}},{"base_weights":[5.2353077E0,3.173051E1,-1.2440807E1,7.9045672E0,2.8157358E2,-2.3345973E2,-6.290351E-1,-4.132082E0,3.7704346E2,5.442494E2,8.768477E1,-2.860509E2,-5.430664E1,3.682832E2,-7.283047E0,1.574893E1,-2.7286743E2,5.180999E2,-3.0517578E2,6.8142847E2,-2.9778645E0,-2.1946875E2,2.1932866E2,-2.8413086E1,-3.4332016E2,-1.0270117E2,2.8321615E1,9.546224E1,4.5831915E2,-8.473893E1,1.9183903E1,-2.5810268E0,1.9829855E2,1.5509636E2,-3.40269E2,1.3827734E2,5.583574E2,1.0512233E3,3.8295963E2,3.1791016E1,-2.9023145E2,2.7096765E2,-8.697917E0,6.338672E1,-8.014193E1,-6.2289062E1,-3.6154868E2,-2.081836E1,-1.2305599E2,3.0176758E1,1.130166E2,-3.2109577E1,-2.5724857E2,1.3165878E2,-1.01133995E1,2.1405485E1,-1.2312517E2,7.310254E2,6.8898224E1,-3.885427E2,1.6778125E2,4.512867E2,2.066211E1,5.755664E1,2.9044946E2,-5.765625E1,4.4609375E1,-2.342871E1,-9.678418E1,-9.453516E1,-3.7722852E2,-2.0793976E2,2.5057932E1,-4.8490393E2,-4.4828728E1,-8.5461845E1,3.3752847E2,-1.423877E3,2.2241678E0],"categories":[],"categories_nodes":[],"categories_segments":[],"categories_sizes":[],"default_left":[1,1,1,1,1,1,1,1,1,1,1,1,1,1,1,1,1,1,0,1,0,1,1,1,1,1,0,1,0,1,1,1,1,0,1,0,0,0,1,0,0,1,1,0,1,0,1,0,0,0,0,1,1,1,1,0,0,0,0,0,0,0,0,0,0,0,0,0,0,0,0,0,0,0,0,0,0,0,0],"id":27,"left_children":[1,3,5,7,9,11,13,15,17,19,21,23,25,27,29,31,33,35,-1,37,-1,39,41,43,45,47,-1,49,-1,51,53,55,57,-1,59,-1,-1,-1,61,-1,-1,63,65,-1,67,-1,69,-1,-1,-1,-1,71,73,75,77,-1,-1,-1,-1,-1,-1,-1,-1,-1,-1,-1,-1,-1,-1,-1,-1,-1,-1,-1,-1,-1,-1,-1,-1],"loss_changes":[3.2307572E5,1.6407322E6,1.080652E6,1.1256864E6,1.1745954E6,1.8232475E5,9.698524E5,1.3186091E6,9.2796275E5,7.5271025E5,6.546591E5,2.2632088E5,2.6901193E4,1.2819375E5,7.970338E5,7.701209E5,5.4314675E5,2.9826875E4,0E0,4.80402E5,0E0,9.812584E4,1.318825E5,2.4074723E4,4.40755E4,4.1050156E3,0E0,2.7660156E1,0E0,8.905676E5,9.569427E5,6.0983656E5,1.3972692E6,0E0,4.3307188E5,0E0,0E0,0E0,1.3920388E5,0E0,0E0,2.0701438E4,1.0401518E4,0E0,5.639785E2,0E0,1.45795E4,0E0,0E0,0E0,0E0,7.791971E5,1.0905085E6,2.710759E6,4.032362E6,0E0,0E0,0E0,0E0,0E0,0E0,0E0,0E0,0E0,0E0,0E0,0E0,0E0,0E0,0E0,0E0,0E0,0E0,0E0,0E0,0E0,0E0,0E0,0E0],"parents":[2147483647,0,0,1,1,2,2,3,3,4,4,5,5,6,6,7,7,8,8,9,9,10,10,11,11,12,12,13,13,14,14,15,15,16,16,17,17,19,19,21,21,22,22,23,23,24,24,25,25,27,27,29,29,30,30,31,31,32,32,34,34,38,38,41,41,42,42,44,44,46,46,51,51,52,52,53,53,54,54],"right_children":[2,4,6,8,10,12,14,16,18,20,22,24,26,28,30,32,34,36,-1,38,-1,40,42,44,46,48,-1,50,-1,52,54,56,58,-1,60,-1,-1,-1,62,-1,-1,64,66,-1,68,-1,70,-1,-1,-1,-1,72,74,76,78,-1,-1,-1,-1,-1,-1,-1,-1,-1,-1,-1,-1,-1,-1,-1,-1,-1,-1,-1,-1,-1,-1,-1,-1],"split_conditions":[3.489213E4,3.4372863E4,3.601454E4,3.8286695E4,3.4605336E4,3.9607066E4,3.2904543E4,3.3501625E4,3.910725E4,3.7576867E4,3.1289113E4,3.0120879E4,3.7032617E4,3.4957723E4,4.0890062E4,3.1394547E4,3.13038E4,2.7784297E4,-9.1552734E1,3.3881625E4,-8.9335936E-1,3.4409895E4,3.635808E4,